digraph Tree {
node [shape=box] ;
0 [label="instrumentalness <= -0.356\ngini = 0.5\nsamples = 32880\nvalue = [16383, 16497]"] ;
1 [label="acousticness <= 1.137\ngini = 0.469\nsamples = 24403\nvalue = [9183, 15220]"] ;
0 -> 1 [labeldistance=2.5, labelangle=45, headlabel="True"] ;
2 [label="danceability <= -0.249\ngini = 0.442\nsamples = 20786\nvalue = [6849, 13937]"] ;
1 -> 2 ;
3 [label="energy <= 1.306\ngini = 0.5\nsamples = 5801\nvalue = [2871, 2930]"] ;
2 -> 3 ;
4 [label="instrumentalness <= -0.507\ngini = 0.49\nsamples = 4767\nvalue = [2042, 2725]"] ;
3 -> 4 ;
5 [label="speechiness <= -0.432\ngini = 0.467\nsamples = 3535\nvalue = [1311, 2224]"] ;
4 -> 5 ;
6 [label="mode <= -0.419\ngini = 0.399\nsamples = 1495\nvalue = [412, 1083]"] ;
5 -> 6 ;
7 [label="sections <= 1.237\ngini = 0.496\nsamples = 272\nvalue = [124, 148]"] ;
6 -> 7 ;
8 [label="danceability <= -0.592\ngini = 0.492\nsamples = 262\nvalue = [114, 148]"] ;
7 -> 8 ;
9 [label="acousticness <= -1.003\ngini = 0.5\nsamples = 165\nvalue = [85, 80]"] ;
8 -> 9 ;
10 [label="gini = 0.0\nsamples = 8\nvalue = [8, 0]"] ;
9 -> 10 ;
11 [label="chorus_hit <= 2.217\ngini = 0.5\nsamples = 157\nvalue = [77, 80]"] ;
9 -> 11 ;
12 [label="instrumentalness <= -0.508\ngini = 0.5\nsamples = 151\nvalue = [77, 74]"] ;
11 -> 12 ;
13 [label="energy <= -0.602\ngini = 0.5\nsamples = 142\nvalue = [69, 73]"] ;
12 -> 13 ;
14 [label="speechiness <= -0.487\ngini = 0.486\nsamples = 72\nvalue = [42, 30]"] ;
13 -> 14 ;
15 [label="valence <= -0.815\ngini = 0.492\nsamples = 32\nvalue = [14, 18]"] ;
14 -> 15 ;
16 [label="energy <= -0.843\ngini = 0.36\nsamples = 17\nvalue = [4, 13]"] ;
15 -> 16 ;
17 [label="gini = 0.0\nsamples = 12\nvalue = [0, 12]"] ;
16 -> 17 ;
18 [label="valence <= -1.098\ngini = 0.32\nsamples = 5\nvalue = [4, 1]"] ;
16 -> 18 ;
19 [label="gini = 0.0\nsamples = 4\nvalue = [4, 0]"] ;
18 -> 19 ;
20 [label="gini = 0.0\nsamples = 1\nvalue = [0, 1]"] ;
18 -> 20 ;
21 [label="energy <= -1.017\ngini = 0.444\nsamples = 15\nvalue = [10, 5]"] ;
15 -> 21 ;
22 [label="gini = 0.0\nsamples = 6\nvalue = [6, 0]"] ;
21 -> 22 ;
23 [label="liveness <= -0.252\ngini = 0.494\nsamples = 9\nvalue = [4, 5]"] ;
21 -> 23 ;
24 [label="gini = 0.0\nsamples = 4\nvalue = [4, 0]"] ;
23 -> 24 ;
25 [label="gini = 0.0\nsamples = 5\nvalue = [0, 5]"] ;
23 -> 25 ;
26 [label="liveness <= 1.928\ngini = 0.42\nsamples = 40\nvalue = [28, 12]"] ;
14 -> 26 ;
27 [label="acousticness <= 1.082\ngini = 0.388\nsamples = 38\nvalue = [28, 10]"] ;
26 -> 27 ;
28 [label="tempo <= 1.422\ngini = 0.346\nsamples = 36\nvalue = [28, 8]"] ;
27 -> 28 ;
29 [label="energy <= -1.684\ngini = 0.271\nsamples = 31\nvalue = [26, 5]"] ;
28 -> 29 ;
30 [label="duration_ms <= -0.632\ngini = 0.444\nsamples = 3\nvalue = [1, 2]"] ;
29 -> 30 ;
31 [label="gini = 0.0\nsamples = 1\nvalue = [1, 0]"] ;
30 -> 31 ;
32 [label="gini = 0.0\nsamples = 2\nvalue = [0, 2]"] ;
30 -> 32 ;
33 [label="energy <= -0.899\ngini = 0.191\nsamples = 28\nvalue = [25, 3]"] ;
29 -> 33 ;
34 [label="gini = 0.0\nsamples = 19\nvalue = [19, 0]"] ;
33 -> 34 ;
35 [label="acousticness <= 0.924\ngini = 0.444\nsamples = 9\nvalue = [6, 3]"] ;
33 -> 35 ;
36 [label="duration_ms <= 0.208\ngini = 0.245\nsamples = 7\nvalue = [6, 1]"] ;
35 -> 36 ;
37 [label="gini = 0.0\nsamples = 6\nvalue = [6, 0]"] ;
36 -> 37 ;
38 [label="gini = 0.0\nsamples = 1\nvalue = [0, 1]"] ;
36 -> 38 ;
39 [label="gini = 0.0\nsamples = 2\nvalue = [0, 2]"] ;
35 -> 39 ;
40 [label="liveness <= -0.668\ngini = 0.48\nsamples = 5\nvalue = [2, 3]"] ;
28 -> 40 ;
41 [label="gini = 0.0\nsamples = 2\nvalue = [2, 0]"] ;
40 -> 41 ;
42 [label="gini = 0.0\nsamples = 3\nvalue = [0, 3]"] ;
40 -> 42 ;
43 [label="gini = 0.0\nsamples = 2\nvalue = [0, 2]"] ;
27 -> 43 ;
44 [label="gini = 0.0\nsamples = 2\nvalue = [0, 2]"] ;
26 -> 44 ;
45 [label="chorus_hit <= -0.589\ngini = 0.474\nsamples = 70\nvalue = [27, 43]"] ;
13 -> 45 ;
46 [label="danceability <= -1.891\ngini = 0.18\nsamples = 20\nvalue = [2, 18]"] ;
45 -> 46 ;
47 [label="gini = 0.0\nsamples = 1\nvalue = [1, 0]"] ;
46 -> 47 ;
48 [label="chorus_hit <= -1.24\ngini = 0.1\nsamples = 19\nvalue = [1, 18]"] ;
46 -> 48 ;
49 [label="chorus_hit <= -1.36\ngini = 0.5\nsamples = 2\nvalue = [1, 1]"] ;
48 -> 49 ;
50 [label="gini = 0.0\nsamples = 1\nvalue = [0, 1]"] ;
49 -> 50 ;
51 [label="gini = 0.0\nsamples = 1\nvalue = [1, 0]"] ;
49 -> 51 ;
52 [label="gini = 0.0\nsamples = 17\nvalue = [0, 17]"] ;
48 -> 52 ;
53 [label="valence <= -0.724\ngini = 0.5\nsamples = 50\nvalue = [25, 25]"] ;
45 -> 53 ;
54 [label="liveness <= 1.139\ngini = 0.32\nsamples = 15\nvalue = [3, 12]"] ;
53 -> 54 ;
55 [label="chorus_hit <= 1.426\ngini = 0.142\nsamples = 13\nvalue = [1, 12]"] ;
54 -> 55 ;
56 [label="gini = 0.0\nsamples = 11\nvalue = [0, 11]"] ;
55 -> 56 ;
57 [label="sections <= -0.2\ngini = 0.5\nsamples = 2\nvalue = [1, 1]"] ;
55 -> 57 ;
58 [label="gini = 0.0\nsamples = 1\nvalue = [0, 1]"] ;
57 -> 58 ;
59 [label="gini = 0.0\nsamples = 1\nvalue = [1, 0]"] ;
57 -> 59 ;
60 [label="gini = 0.0\nsamples = 2\nvalue = [2, 0]"] ;
54 -> 60 ;
61 [label="loudness <= -0.293\ngini = 0.467\nsamples = 35\nvalue = [22, 13]"] ;
53 -> 61 ;
62 [label="gini = 0.0\nsamples = 4\nvalue = [0, 4]"] ;
61 -> 62 ;
63 [label="sections <= -0.611\ngini = 0.412\nsamples = 31\nvalue = [22, 9]"] ;
61 -> 63 ;
64 [label="tempo <= 0.456\ngini = 0.444\nsamples = 6\nvalue = [2, 4]"] ;
63 -> 64 ;
65 [label="instrumentalness <= -0.509\ngini = 0.444\nsamples = 3\nvalue = [2, 1]"] ;
64 -> 65 ;
66 [label="gini = 0.0\nsamples = 2\nvalue = [2, 0]"] ;
65 -> 66 ;
67 [label="gini = 0.0\nsamples = 1\nvalue = [0, 1]"] ;
65 -> 67 ;
68 [label="gini = 0.0\nsamples = 3\nvalue = [0, 3]"] ;
64 -> 68 ;
69 [label="instrumentalness <= -0.509\ngini = 0.32\nsamples = 25\nvalue = [20, 5]"] ;
63 -> 69 ;
70 [label="valence <= 0.514\ngini = 0.117\nsamples = 16\nvalue = [15, 1]"] ;
69 -> 70 ;
71 [label="gini = 0.0\nsamples = 14\nvalue = [14, 0]"] ;
70 -> 71 ;
72 [label="danceability <= -0.98\ngini = 0.5\nsamples = 2\nvalue = [1, 1]"] ;
70 -> 72 ;
73 [label="gini = 0.0\nsamples = 1\nvalue = [0, 1]"] ;
72 -> 73 ;
74 [label="gini = 0.0\nsamples = 1\nvalue = [1, 0]"] ;
72 -> 74 ;
75 [label="energy <= 0.384\ngini = 0.494\nsamples = 9\nvalue = [5, 4]"] ;
69 -> 75 ;
76 [label="liveness <= 0.043\ngini = 0.444\nsamples = 6\nvalue = [2, 4]"] ;
75 -> 76 ;
77 [label="gini = 0.0\nsamples = 4\nvalue = [0, 4]"] ;
76 -> 77 ;
78 [label="gini = 0.0\nsamples = 2\nvalue = [2, 0]"] ;
76 -> 78 ;
79 [label="gini = 0.0\nsamples = 3\nvalue = [3, 0]"] ;
75 -> 79 ;
80 [label="danceability <= -1.405\ngini = 0.198\nsamples = 9\nvalue = [8, 1]"] ;
12 -> 80 ;
81 [label="gini = 0.0\nsamples = 1\nvalue = [0, 1]"] ;
80 -> 81 ;
82 [label="gini = 0.0\nsamples = 8\nvalue = [8, 0]"] ;
80 -> 82 ;
83 [label="gini = 0.0\nsamples = 6\nvalue = [0, 6]"] ;
11 -> 83 ;
84 [label="energy <= -0.889\ngini = 0.419\nsamples = 97\nvalue = [29, 68]"] ;
8 -> 84 ;
85 [label="key <= 0.364\ngini = 0.426\nsamples = 13\nvalue = [9, 4]"] ;
84 -> 85 ;
86 [label="acousticness <= 0.901\ngini = 0.444\nsamples = 6\nvalue = [2, 4]"] ;
85 -> 86 ;
87 [label="gini = 0.0\nsamples = 4\nvalue = [0, 4]"] ;
86 -> 87 ;
88 [label="gini = 0.0\nsamples = 2\nvalue = [2, 0]"] ;
86 -> 88 ;
89 [label="gini = 0.0\nsamples = 7\nvalue = [7, 0]"] ;
85 -> 89 ;
90 [label="liveness <= -0.555\ngini = 0.363\nsamples = 84\nvalue = [20, 64]"] ;
84 -> 90 ;
91 [label="speechiness <= -0.458\ngini = 0.499\nsamples = 23\nvalue = [11, 12]"] ;
90 -> 91 ;
92 [label="key <= 0.364\ngini = 0.355\nsamples = 13\nvalue = [10, 3]"] ;
91 -> 92 ;
93 [label="gini = 0.0\nsamples = 7\nvalue = [7, 0]"] ;
92 -> 93 ;
94 [label="energy <= 0.396\ngini = 0.5\nsamples = 6\nvalue = [3, 3]"] ;
92 -> 94 ;
95 [label="liveness <= -0.561\ngini = 0.375\nsamples = 4\nvalue = [3, 1]"] ;
94 -> 95 ;
96 [label="gini = 0.0\nsamples = 3\nvalue = [3, 0]"] ;
95 -> 96 ;
97 [label="gini = 0.0\nsamples = 1\nvalue = [0, 1]"] ;
95 -> 97 ;
98 [label="gini = 0.0\nsamples = 2\nvalue = [0, 2]"] ;
94 -> 98 ;
99 [label="energy <= 0.806\ngini = 0.18\nsamples = 10\nvalue = [1, 9]"] ;
91 -> 99 ;
100 [label="gini = 0.0\nsamples = 9\nvalue = [0, 9]"] ;
99 -> 100 ;
101 [label="gini = 0.0\nsamples = 1\nvalue = [1, 0]"] ;
99 -> 101 ;
102 [label="energy <= 1.105\ngini = 0.252\nsamples = 61\nvalue = [9, 52]"] ;
90 -> 102 ;
103 [label="chorus_hit <= 1.446\ngini = 0.209\nsamples = 59\nvalue = [7, 52]"] ;
102 -> 103 ;
104 [label="valence <= -1.703\ngini = 0.163\nsamples = 56\nvalue = [5, 51]"] ;
103 -> 104 ;
105 [label="gini = 0.0\nsamples = 1\nvalue = [1, 0]"] ;
104 -> 105 ;
106 [label="speechiness <= -0.498\ngini = 0.135\nsamples = 55\nvalue = [4, 51]"] ;
104 -> 106 ;
107 [label="sections <= 0.005\ngini = 0.308\nsamples = 21\nvalue = [4, 17]"] ;
106 -> 107 ;
108 [label="acousticness <= 0.073\ngini = 0.48\nsamples = 10\nvalue = [4, 6]"] ;
107 -> 108 ;
109 [label="gini = 0.0\nsamples = 4\nvalue = [0, 4]"] ;
108 -> 109 ;
110 [label="acousticness <= 0.688\ngini = 0.444\nsamples = 6\nvalue = [4, 2]"] ;
108 -> 110 ;
111 [label="gini = 0.0\nsamples = 3\nvalue = [3, 0]"] ;
110 -> 111 ;
112 [label="tempo <= -1.117\ngini = 0.444\nsamples = 3\nvalue = [1, 2]"] ;
110 -> 112 ;
113 [label="gini = 0.0\nsamples = 1\nvalue = [1, 0]"] ;
112 -> 113 ;
114 [label="gini = 0.0\nsamples = 2\nvalue = [0, 2]"] ;
112 -> 114 ;
115 [label="gini = 0.0\nsamples = 11\nvalue = [0, 11]"] ;
107 -> 115 ;
116 [label="gini = 0.0\nsamples = 34\nvalue = [0, 34]"] ;
106 -> 116 ;
117 [label="valence <= 0.69\ngini = 0.444\nsamples = 3\nvalue = [2, 1]"] ;
103 -> 117 ;
118 [label="gini = 0.0\nsamples = 2\nvalue = [2, 0]"] ;
117 -> 118 ;
119 [label="gini = 0.0\nsamples = 1\nvalue = [0, 1]"] ;
117 -> 119 ;
120 [label="gini = 0.0\nsamples = 2\nvalue = [2, 0]"] ;
102 -> 120 ;
121 [label="gini = 0.0\nsamples = 10\nvalue = [10, 0]"] ;
7 -> 121 ;
122 [label="duration_ms <= -1.058\ngini = 0.36\nsamples = 1223\nvalue = [288, 935]"] ;
6 -> 122 ;
123 [label="gini = 0.0\nsamples = 7\nvalue = [7, 0]"] ;
122 -> 123 ;
124 [label="duration_ms <= 0.859\ngini = 0.355\nsamples = 1216\nvalue = [281, 935]"] ;
122 -> 124 ;
125 [label="valence <= -0.935\ngini = 0.342\nsamples = 1165\nvalue = [255, 910]"] ;
124 -> 125 ;
126 [label="speechiness <= -0.484\ngini = 0.232\nsamples = 336\nvalue = [45, 291]"] ;
125 -> 126 ;
127 [label="duration_ms <= 0.634\ngini = 0.111\nsamples = 204\nvalue = [12, 192]"] ;
126 -> 127 ;
128 [label="liveness <= 3.266\ngini = 0.087\nsamples = 197\nvalue = [9, 188]"] ;
127 -> 128 ;
129 [label="acousticness <= 1.131\ngini = 0.078\nsamples = 196\nvalue = [8, 188]"] ;
128 -> 129 ;
130 [label="chorus_hit <= 0.915\ngini = 0.069\nsamples = 195\nvalue = [7, 188]"] ;
129 -> 130 ;
131 [label="time_signature <= 1.433\ngini = 0.043\nsamples = 180\nvalue = [4, 176]"] ;
130 -> 131 ;
132 [label="tempo <= 1.132\ngini = 0.033\nsamples = 179\nvalue = [3, 176]"] ;
131 -> 132 ;
133 [label="gini = 0.0\nsamples = 151\nvalue = [0, 151]"] ;
132 -> 133 ;
134 [label="tempo <= 1.149\ngini = 0.191\nsamples = 28\nvalue = [3, 25]"] ;
132 -> 134 ;
135 [label="gini = 0.0\nsamples = 1\nvalue = [1, 0]"] ;
134 -> 135 ;
136 [label="chorus_hit <= -0.91\ngini = 0.137\nsamples = 27\nvalue = [2, 25]"] ;
134 -> 136 ;
137 [label="energy <= -0.325\ngini = 0.5\nsamples = 2\nvalue = [1, 1]"] ;
136 -> 137 ;
138 [label="gini = 0.0\nsamples = 1\nvalue = [0, 1]"] ;
137 -> 138 ;
139 [label="gini = 0.0\nsamples = 1\nvalue = [1, 0]"] ;
137 -> 139 ;
140 [label="valence <= -1.388\ngini = 0.077\nsamples = 25\nvalue = [1, 24]"] ;
136 -> 140 ;
141 [label="valence <= -1.435\ngini = 0.375\nsamples = 4\nvalue = [1, 3]"] ;
140 -> 141 ;
142 [label="gini = 0.0\nsamples = 3\nvalue = [0, 3]"] ;
141 -> 142 ;
143 [label="gini = 0.0\nsamples = 1\nvalue = [1, 0]"] ;
141 -> 143 ;
144 [label="gini = 0.0\nsamples = 21\nvalue = [0, 21]"] ;
140 -> 144 ;
145 [label="gini = 0.0\nsamples = 1\nvalue = [1, 0]"] ;
131 -> 145 ;
146 [label="speechiness <= -0.501\ngini = 0.32\nsamples = 15\nvalue = [3, 12]"] ;
130 -> 146 ;
147 [label="chorus_hit <= 0.947\ngini = 0.153\nsamples = 12\nvalue = [1, 11]"] ;
146 -> 147 ;
148 [label="gini = 0.0\nsamples = 1\nvalue = [1, 0]"] ;
147 -> 148 ;
149 [label="gini = 0.0\nsamples = 11\nvalue = [0, 11]"] ;
147 -> 149 ;
150 [label="liveness <= -0.278\ngini = 0.444\nsamples = 3\nvalue = [2, 1]"] ;
146 -> 150 ;
151 [label="gini = 0.0\nsamples = 1\nvalue = [0, 1]"] ;
150 -> 151 ;
152 [label="gini = 0.0\nsamples = 2\nvalue = [2, 0]"] ;
150 -> 152 ;
153 [label="gini = 0.0\nsamples = 1\nvalue = [1, 0]"] ;
129 -> 153 ;
154 [label="gini = 0.0\nsamples = 1\nvalue = [1, 0]"] ;
128 -> 154 ;
155 [label="duration_ms <= 0.7\ngini = 0.49\nsamples = 7\nvalue = [3, 4]"] ;
127 -> 155 ;
156 [label="energy <= -1.116\ngini = 0.375\nsamples = 4\nvalue = [3, 1]"] ;
155 -> 156 ;
157 [label="gini = 0.0\nsamples = 1\nvalue = [0, 1]"] ;
156 -> 157 ;
158 [label="gini = 0.0\nsamples = 3\nvalue = [3, 0]"] ;
156 -> 158 ;
159 [label="gini = 0.0\nsamples = 3\nvalue = [0, 3]"] ;
155 -> 159 ;
160 [label="energy <= -0.053\ngini = 0.375\nsamples = 132\nvalue = [33, 99]"] ;
126 -> 160 ;
161 [label="tempo <= 1.048\ngini = 0.451\nsamples = 93\nvalue = [32, 61]"] ;
160 -> 161 ;
162 [label="chorus_hit <= 0.173\ngini = 0.482\nsamples = 79\nvalue = [32, 47]"] ;
161 -> 162 ;
163 [label="speechiness <= -0.482\ngini = 0.408\nsamples = 49\nvalue = [14, 35]"] ;
162 -> 163 ;
164 [label="gini = 0.0\nsamples = 3\nvalue = [3, 0]"] ;
163 -> 164 ;
165 [label="danceability <= -0.814\ngini = 0.364\nsamples = 46\nvalue = [11, 35]"] ;
163 -> 165 ;
166 [label="duration_ms <= 0.276\ngini = 0.473\nsamples = 26\nvalue = [10, 16]"] ;
165 -> 166 ;
167 [label="loudness <= -0.323\ngini = 0.423\nsamples = 23\nvalue = [7, 16]"] ;
166 -> 167 ;
168 [label="danceability <= -1.509\ngini = 0.48\nsamples = 10\nvalue = [6, 4]"] ;
167 -> 168 ;
169 [label="tempo <= 0.185\ngini = 0.32\nsamples = 5\nvalue = [1, 4]"] ;
168 -> 169 ;
170 [label="gini = 0.0\nsamples = 4\nvalue = [0, 4]"] ;
169 -> 170 ;
171 [label="gini = 0.0\nsamples = 1\nvalue = [1, 0]"] ;
169 -> 171 ;
172 [label="gini = 0.0\nsamples = 5\nvalue = [5, 0]"] ;
168 -> 172 ;
173 [label="energy <= -0.162\ngini = 0.142\nsamples = 13\nvalue = [1, 12]"] ;
167 -> 173 ;
174 [label="gini = 0.0\nsamples = 12\nvalue = [0, 12]"] ;
173 -> 174 ;
175 [label="gini = 0.0\nsamples = 1\nvalue = [1, 0]"] ;
173 -> 175 ;
176 [label="gini = 0.0\nsamples = 3\nvalue = [3, 0]"] ;
166 -> 176 ;
177 [label="tempo <= 0.735\ngini = 0.095\nsamples = 20\nvalue = [1, 19]"] ;
165 -> 177 ;
178 [label="gini = 0.0\nsamples = 18\nvalue = [0, 18]"] ;
177 -> 178 ;
179 [label="duration_ms <= -0.308\ngini = 0.5\nsamples = 2\nvalue = [1, 1]"] ;
177 -> 179 ;
180 [label="gini = 0.0\nsamples = 1\nvalue = [1, 0]"] ;
179 -> 180 ;
181 [label="gini = 0.0\nsamples = 1\nvalue = [0, 1]"] ;
179 -> 181 ;
182 [label="liveness <= -0.255\ngini = 0.48\nsamples = 30\nvalue = [18, 12]"] ;
162 -> 182 ;
183 [label="valence <= -1.453\ngini = 0.305\nsamples = 16\nvalue = [13, 3]"] ;
182 -> 183 ;
184 [label="sections <= 0.21\ngini = 0.5\nsamples = 6\nvalue = [3, 3]"] ;
183 -> 184 ;
185 [label="energy <= -0.817\ngini = 0.375\nsamples = 4\nvalue = [1, 3]"] ;
184 -> 185 ;
186 [label="gini = 0.0\nsamples = 3\nvalue = [0, 3]"] ;
185 -> 186 ;
187 [label="gini = 0.0\nsamples = 1\nvalue = [1, 0]"] ;
185 -> 187 ;
188 [label="gini = 0.0\nsamples = 2\nvalue = [2, 0]"] ;
184 -> 188 ;
189 [label="gini = 0.0\nsamples = 10\nvalue = [10, 0]"] ;
183 -> 189 ;
190 [label="liveness <= 0.205\ngini = 0.459\nsamples = 14\nvalue = [5, 9]"] ;
182 -> 190 ;
191 [label="gini = 0.0\nsamples = 5\nvalue = [0, 5]"] ;
190 -> 191 ;
192 [label="tempo <= -0.604\ngini = 0.494\nsamples = 9\nvalue = [5, 4]"] ;
190 -> 192 ;
193 [label="key <= -0.626\ngini = 0.32\nsamples = 5\nvalue = [1, 4]"] ;
192 -> 193 ;
194 [label="gini = 0.0\nsamples = 1\nvalue = [1, 0]"] ;
193 -> 194 ;
195 [label="gini = 0.0\nsamples = 4\nvalue = [0, 4]"] ;
193 -> 195 ;
196 [label="gini = 0.0\nsamples = 4\nvalue = [4, 0]"] ;
192 -> 196 ;
197 [label="gini = 0.0\nsamples = 14\nvalue = [0, 14]"] ;
161 -> 197 ;
198 [label="tempo <= 1.828\ngini = 0.05\nsamples = 39\nvalue = [1, 38]"] ;
160 -> 198 ;
199 [label="gini = 0.0\nsamples = 38\nvalue = [0, 38]"] ;
198 -> 199 ;
200 [label="gini = 0.0\nsamples = 1\nvalue = [1, 0]"] ;
198 -> 200 ;
201 [label="time_signature <= 1.433\ngini = 0.378\nsamples = 829\nvalue = [210, 619]"] ;
125 -> 201 ;
202 [label="loudness <= 0.539\ngini = 0.374\nsamples = 824\nvalue = [205, 619]"] ;
201 -> 202 ;
203 [label="sections <= -0.2\ngini = 0.339\nsamples = 565\nvalue = [122, 443]"] ;
202 -> 203 ;
204 [label="loudness <= -1.346\ngini = 0.257\nsamples = 278\nvalue = [42, 236]"] ;
203 -> 204 ;
205 [label="loudness <= -1.64\ngini = 0.444\nsamples = 6\nvalue = [4, 2]"] ;
204 -> 205 ;
206 [label="gini = 0.0\nsamples = 2\nvalue = [0, 2]"] ;
205 -> 206 ;
207 [label="gini = 0.0\nsamples = 4\nvalue = [4, 0]"] ;
205 -> 207 ;
208 [label="energy <= 0.592\ngini = 0.24\nsamples = 272\nvalue = [38, 234]"] ;
204 -> 208 ;
209 [label="valence <= -0.146\ngini = 0.22\nsamples = 262\nvalue = [33, 229]"] ;
208 -> 209 ;
210 [label="valence <= -0.322\ngini = 0.328\nsamples = 121\nvalue = [25, 96]"] ;
209 -> 210 ;
211 [label="instrumentalness <= -0.509\ngini = 0.251\nsamples = 95\nvalue = [14, 81]"] ;
210 -> 211 ;
212 [label="chorus_hit <= 1.76\ngini = 0.129\nsamples = 72\nvalue = [5, 67]"] ;
211 -> 212 ;
213 [label="time_signature <= -4.476\ngini = 0.083\nsamples = 69\nvalue = [3, 66]"] ;
212 -> 213 ;
214 [label="gini = 0.0\nsamples = 1\nvalue = [1, 0]"] ;
213 -> 214 ;
215 [label="energy <= 0.398\ngini = 0.057\nsamples = 68\nvalue = [2, 66]"] ;
213 -> 215 ;
216 [label="chorus_hit <= -0.981\ngini = 0.029\nsamples = 67\nvalue = [1, 66]"] ;
215 -> 216 ;
217 [label="speechiness <= -0.524\ngini = 0.375\nsamples = 4\nvalue = [1, 3]"] ;
216 -> 217 ;
218 [label="gini = 0.0\nsamples = 1\nvalue = [1, 0]"] ;
217 -> 218 ;
219 [label="gini = 0.0\nsamples = 3\nvalue = [0, 3]"] ;
217 -> 219 ;
220 [label="gini = 0.0\nsamples = 63\nvalue = [0, 63]"] ;
216 -> 220 ;
221 [label="gini = 0.0\nsamples = 1\nvalue = [1, 0]"] ;
215 -> 221 ;
222 [label="acousticness <= 0.446\ngini = 0.444\nsamples = 3\nvalue = [2, 1]"] ;
212 -> 222 ;
223 [label="gini = 0.0\nsamples = 1\nvalue = [0, 1]"] ;
222 -> 223 ;
224 [label="gini = 0.0\nsamples = 2\nvalue = [2, 0]"] ;
222 -> 224 ;
225 [label="instrumentalness <= -0.509\ngini = 0.476\nsamples = 23\nvalue = [9, 14]"] ;
211 -> 225 ;
226 [label="speechiness <= -0.488\ngini = 0.346\nsamples = 9\nvalue = [7, 2]"] ;
225 -> 226 ;
227 [label="gini = 0.0\nsamples = 6\nvalue = [6, 0]"] ;
226 -> 227 ;
228 [label="acousticness <= 0.92\ngini = 0.444\nsamples = 3\nvalue = [1, 2]"] ;
226 -> 228 ;
229 [label="gini = 0.0\nsamples = 2\nvalue = [0, 2]"] ;
228 -> 229 ;
230 [label="gini = 0.0\nsamples = 1\nvalue = [1, 0]"] ;
228 -> 230 ;
231 [label="chorus_hit <= -0.983\ngini = 0.245\nsamples = 14\nvalue = [2, 12]"] ;
225 -> 231 ;
232 [label="gini = 0.0\nsamples = 1\nvalue = [1, 0]"] ;
231 -> 232 ;
233 [label="liveness <= 1.032\ngini = 0.142\nsamples = 13\nvalue = [1, 12]"] ;
231 -> 233 ;
234 [label="gini = 0.0\nsamples = 10\nvalue = [0, 10]"] ;
233 -> 234 ;
235 [label="instrumentalness <= -0.508\ngini = 0.444\nsamples = 3\nvalue = [1, 2]"] ;
233 -> 235 ;
236 [label="gini = 0.0\nsamples = 2\nvalue = [0, 2]"] ;
235 -> 236 ;
237 [label="gini = 0.0\nsamples = 1\nvalue = [1, 0]"] ;
235 -> 237 ;
238 [label="acousticness <= 0.198\ngini = 0.488\nsamples = 26\nvalue = [11, 15]"] ;
210 -> 238 ;
239 [label="energy <= -1.077\ngini = 0.18\nsamples = 10\nvalue = [1, 9]"] ;
238 -> 239 ;
240 [label="gini = 0.0\nsamples = 1\nvalue = [1, 0]"] ;
239 -> 240 ;
241 [label="gini = 0.0\nsamples = 9\nvalue = [0, 9]"] ;
239 -> 241 ;
242 [label="chorus_hit <= 1.213\ngini = 0.469\nsamples = 16\nvalue = [10, 6]"] ;
238 -> 242 ;
243 [label="acousticness <= 1.123\ngini = 0.355\nsamples = 13\nvalue = [10, 3]"] ;
242 -> 243 ;
244 [label="liveness <= 0.78\ngini = 0.165\nsamples = 11\nvalue = [10, 1]"] ;
243 -> 244 ;
245 [label="gini = 0.0\nsamples = 10\nvalue = [10, 0]"] ;
244 -> 245 ;
246 [label="gini = 0.0\nsamples = 1\nvalue = [0, 1]"] ;
244 -> 246 ;
247 [label="gini = 0.0\nsamples = 2\nvalue = [0, 2]"] ;
243 -> 247 ;
248 [label="gini = 0.0\nsamples = 3\nvalue = [0, 3]"] ;
242 -> 248 ;
249 [label="liveness <= -0.86\ngini = 0.107\nsamples = 141\nvalue = [8, 133]"] ;
209 -> 249 ;
250 [label="loudness <= -0.3\ngini = 0.5\nsamples = 2\nvalue = [1, 1]"] ;
249 -> 250 ;
251 [label="gini = 0.0\nsamples = 1\nvalue = [0, 1]"] ;
250 -> 251 ;
252 [label="gini = 0.0\nsamples = 1\nvalue = [1, 0]"] ;
250 -> 252 ;
253 [label="valence <= 0.902\ngini = 0.096\nsamples = 139\nvalue = [7, 132]"] ;
249 -> 253 ;
254 [label="danceability <= -1.599\ngini = 0.051\nsamples = 115\nvalue = [3, 112]"] ;
253 -> 254 ;
255 [label="danceability <= -1.655\ngini = 0.444\nsamples = 3\nvalue = [1, 2]"] ;
254 -> 255 ;
256 [label="gini = 0.0\nsamples = 2\nvalue = [0, 2]"] ;
255 -> 256 ;
257 [label="gini = 0.0\nsamples = 1\nvalue = [1, 0]"] ;
255 -> 257 ;
258 [label="duration_ms <= -0.928\ngini = 0.035\nsamples = 112\nvalue = [2, 110]"] ;
254 -> 258 ;
259 [label="liveness <= 0.428\ngini = 0.32\nsamples = 5\nvalue = [1, 4]"] ;
258 -> 259 ;
260 [label="gini = 0.0\nsamples = 4\nvalue = [0, 4]"] ;
259 -> 260 ;
261 [label="gini = 0.0\nsamples = 1\nvalue = [1, 0]"] ;
259 -> 261 ;
262 [label="chorus_hit <= 1.331\ngini = 0.019\nsamples = 107\nvalue = [1, 106]"] ;
258 -> 262 ;
263 [label="gini = 0.0\nsamples = 98\nvalue = [0, 98]"] ;
262 -> 263 ;
264 [label="acousticness <= 0.915\ngini = 0.198\nsamples = 9\nvalue = [1, 8]"] ;
262 -> 264 ;
265 [label="gini = 0.0\nsamples = 8\nvalue = [0, 8]"] ;
264 -> 265 ;
266 [label="gini = 0.0\nsamples = 1\nvalue = [1, 0]"] ;
264 -> 266 ;
267 [label="energy <= -0.772\ngini = 0.278\nsamples = 24\nvalue = [4, 20]"] ;
253 -> 267 ;
268 [label="gini = 0.0\nsamples = 2\nvalue = [2, 0]"] ;
267 -> 268 ;
269 [label="instrumentalness <= -0.508\ngini = 0.165\nsamples = 22\nvalue = [2, 20]"] ;
267 -> 269 ;
270 [label="acousticness <= -0.836\ngini = 0.091\nsamples = 21\nvalue = [1, 20]"] ;
269 -> 270 ;
271 [label="acousticness <= -0.941\ngini = 0.5\nsamples = 2\nvalue = [1, 1]"] ;
270 -> 271 ;
272 [label="gini = 0.0\nsamples = 1\nvalue = [0, 1]"] ;
271 -> 272 ;
273 [label="gini = 0.0\nsamples = 1\nvalue = [1, 0]"] ;
271 -> 273 ;
274 [label="gini = 0.0\nsamples = 19\nvalue = [0, 19]"] ;
270 -> 274 ;
275 [label="gini = 0.0\nsamples = 1\nvalue = [1, 0]"] ;
269 -> 275 ;
276 [label="loudness <= 0.237\ngini = 0.5\nsamples = 10\nvalue = [5, 5]"] ;
208 -> 276 ;
277 [label="gini = 0.0\nsamples = 3\nvalue = [3, 0]"] ;
276 -> 277 ;
278 [label="sections <= -0.816\ngini = 0.408\nsamples = 7\nvalue = [2, 5]"] ;
276 -> 278 ;
279 [label="gini = 0.0\nsamples = 2\nvalue = [2, 0]"] ;
278 -> 279 ;
280 [label="gini = 0.0\nsamples = 5\nvalue = [0, 5]"] ;
278 -> 280 ;
281 [label="chorus_hit <= 0.506\ngini = 0.402\nsamples = 287\nvalue = [80, 207]"] ;
203 -> 281 ;
282 [label="acousticness <= 0.862\ngini = 0.378\nsamples = 257\nvalue = [65, 192]"] ;
281 -> 282 ;
283 [label="acousticness <= 0.628\ngini = 0.338\nsamples = 200\nvalue = [43, 157]"] ;
282 -> 283 ;
284 [label="key <= -0.202\ngini = 0.372\nsamples = 170\nvalue = [42, 128]"] ;
283 -> 284 ;
285 [label="speechiness <= -0.527\ngini = 0.442\nsamples = 79\nvalue = [26, 53]"] ;
284 -> 285 ;
286 [label="danceability <= -0.277\ngini = 0.142\nsamples = 13\nvalue = [1, 12]"] ;
285 -> 286 ;
287 [label="gini = 0.0\nsamples = 12\nvalue = [0, 12]"] ;
286 -> 287 ;
288 [label="gini = 0.0\nsamples = 1\nvalue = [1, 0]"] ;
286 -> 288 ;
289 [label="chorus_hit <= -0.501\ngini = 0.471\nsamples = 66\nvalue = [25, 41]"] ;
285 -> 289 ;
290 [label="acousticness <= -1.064\ngini = 0.389\nsamples = 34\nvalue = [9, 25]"] ;
289 -> 290 ;
291 [label="gini = 0.0\nsamples = 2\nvalue = [2, 0]"] ;
290 -> 291 ;
292 [label="acousticness <= 0.557\ngini = 0.342\nsamples = 32\nvalue = [7, 25]"] ;
290 -> 292 ;
293 [label="valence <= -0.684\ngini = 0.278\nsamples = 30\nvalue = [5, 25]"] ;
292 -> 293 ;
294 [label="tempo <= 0.587\ngini = 0.48\nsamples = 10\nvalue = [4, 6]"] ;
293 -> 294 ;
295 [label="instrumentalness <= -0.509\ngini = 0.32\nsamples = 5\nvalue = [4, 1]"] ;
294 -> 295 ;
296 [label="gini = 0.0\nsamples = 4\nvalue = [4, 0]"] ;
295 -> 296 ;
297 [label="gini = 0.0\nsamples = 1\nvalue = [0, 1]"] ;
295 -> 297 ;
298 [label="gini = 0.0\nsamples = 5\nvalue = [0, 5]"] ;
294 -> 298 ;
299 [label="energy <= 1.083\ngini = 0.095\nsamples = 20\nvalue = [1, 19]"] ;
293 -> 299 ;
300 [label="gini = 0.0\nsamples = 19\nvalue = [0, 19]"] ;
299 -> 300 ;
301 [label="gini = 0.0\nsamples = 1\nvalue = [1, 0]"] ;
299 -> 301 ;
302 [label="gini = 0.0\nsamples = 2\nvalue = [2, 0]"] ;
292 -> 302 ;
303 [label="duration_ms <= -0.563\ngini = 0.5\nsamples = 32\nvalue = [16, 16]"] ;
289 -> 303 ;
304 [label="gini = 0.0\nsamples = 4\nvalue = [0, 4]"] ;
303 -> 304 ;
305 [label="acousticness <= -0.157\ngini = 0.49\nsamples = 28\nvalue = [16, 12]"] ;
303 -> 305 ;
306 [label="valence <= -0.353\ngini = 0.457\nsamples = 17\nvalue = [6, 11]"] ;
305 -> 306 ;
307 [label="tempo <= 0.896\ngini = 0.408\nsamples = 7\nvalue = [5, 2]"] ;
306 -> 307 ;
308 [label="key <= -1.333\ngini = 0.444\nsamples = 3\nvalue = [1, 2]"] ;
307 -> 308 ;
309 [label="gini = 0.0\nsamples = 1\nvalue = [1, 0]"] ;
308 -> 309 ;
310 [label="gini = 0.0\nsamples = 2\nvalue = [0, 2]"] ;
308 -> 310 ;
311 [label="gini = 0.0\nsamples = 4\nvalue = [4, 0]"] ;
307 -> 311 ;
312 [label="duration_ms <= -0.558\ngini = 0.18\nsamples = 10\nvalue = [1, 9]"] ;
306 -> 312 ;
313 [label="gini = 0.0\nsamples = 1\nvalue = [1, 0]"] ;
312 -> 313 ;
314 [label="gini = 0.0\nsamples = 9\nvalue = [0, 9]"] ;
312 -> 314 ;
315 [label="speechiness <= -0.465\ngini = 0.165\nsamples = 11\nvalue = [10, 1]"] ;
305 -> 315 ;
316 [label="gini = 0.0\nsamples = 10\nvalue = [10, 0]"] ;
315 -> 316 ;
317 [label="gini = 0.0\nsamples = 1\nvalue = [0, 1]"] ;
315 -> 317 ;
318 [label="acousticness <= -0.601\ngini = 0.29\nsamples = 91\nvalue = [16, 75]"] ;
284 -> 318 ;
319 [label="chorus_hit <= -0.789\ngini = 0.422\nsamples = 33\nvalue = [10, 23]"] ;
318 -> 319 ;
320 [label="gini = 0.0\nsamples = 3\nvalue = [3, 0]"] ;
319 -> 320 ;
321 [label="sections <= 0.005\ngini = 0.358\nsamples = 30\nvalue = [7, 23]"] ;
319 -> 321 ;
322 [label="acousticness <= -0.893\ngini = 0.496\nsamples = 11\nvalue = [6, 5]"] ;
321 -> 322 ;
323 [label="gini = 0.0\nsamples = 4\nvalue = [4, 0]"] ;
322 -> 323 ;
324 [label="key <= 0.222\ngini = 0.408\nsamples = 7\nvalue = [2, 5]"] ;
322 -> 324 ;
325 [label="gini = 0.0\nsamples = 4\nvalue = [0, 4]"] ;
324 -> 325 ;
326 [label="chorus_hit <= -0.136\ngini = 0.444\nsamples = 3\nvalue = [2, 1]"] ;
324 -> 326 ;
327 [label="gini = 0.0\nsamples = 1\nvalue = [0, 1]"] ;
326 -> 327 ;
328 [label="gini = 0.0\nsamples = 2\nvalue = [2, 0]"] ;
326 -> 328 ;
329 [label="chorus_hit <= -0.691\ngini = 0.1\nsamples = 19\nvalue = [1, 18]"] ;
321 -> 329 ;
330 [label="liveness <= -0.116\ngini = 0.5\nsamples = 2\nvalue = [1, 1]"] ;
329 -> 330 ;
331 [label="gini = 0.0\nsamples = 1\nvalue = [1, 0]"] ;
330 -> 331 ;
332 [label="gini = 0.0\nsamples = 1\nvalue = [0, 1]"] ;
330 -> 332 ;
333 [label="gini = 0.0\nsamples = 17\nvalue = [0, 17]"] ;
329 -> 333 ;
334 [label="loudness <= -0.451\ngini = 0.185\nsamples = 58\nvalue = [6, 52]"] ;
318 -> 334 ;
335 [label="danceability <= -0.35\ngini = 0.408\nsamples = 14\nvalue = [4, 10]"] ;
334 -> 335 ;
336 [label="acousticness <= 0.564\ngini = 0.278\nsamples = 12\nvalue = [2, 10]"] ;
335 -> 336 ;
337 [label="duration_ms <= -0.431\ngini = 0.165\nsamples = 11\nvalue = [1, 10]"] ;
336 -> 337 ;
338 [label="speechiness <= -0.508\ngini = 0.5\nsamples = 2\nvalue = [1, 1]"] ;
337 -> 338 ;
339 [label="gini = 0.0\nsamples = 1\nvalue = [1, 0]"] ;
338 -> 339 ;
340 [label="gini = 0.0\nsamples = 1\nvalue = [0, 1]"] ;
338 -> 340 ;
341 [label="gini = 0.0\nsamples = 9\nvalue = [0, 9]"] ;
337 -> 341 ;
342 [label="gini = 0.0\nsamples = 1\nvalue = [1, 0]"] ;
336 -> 342 ;
343 [label="gini = 0.0\nsamples = 2\nvalue = [2, 0]"] ;
335 -> 343 ;
344 [label="time_signature <= -0.93\ngini = 0.087\nsamples = 44\nvalue = [2, 42]"] ;
334 -> 344 ;
345 [label="chorus_hit <= -0.239\ngini = 0.408\nsamples = 7\nvalue = [2, 5]"] ;
344 -> 345 ;
346 [label="gini = 0.0\nsamples = 5\nvalue = [0, 5]"] ;
345 -> 346 ;
347 [label="gini = 0.0\nsamples = 2\nvalue = [2, 0]"] ;
345 -> 347 ;
348 [label="gini = 0.0\nsamples = 37\nvalue = [0, 37]"] ;
344 -> 348 ;
349 [label="danceability <= -0.474\ngini = 0.064\nsamples = 30\nvalue = [1, 29]"] ;
283 -> 349 ;
350 [label="gini = 0.0\nsamples = 28\nvalue = [0, 28]"] ;
349 -> 350 ;
351 [label="speechiness <= -0.516\ngini = 0.5\nsamples = 2\nvalue = [1, 1]"] ;
349 -> 351 ;
352 [label="gini = 0.0\nsamples = 1\nvalue = [0, 1]"] ;
351 -> 352 ;
353 [label="gini = 0.0\nsamples = 1\nvalue = [1, 0]"] ;
351 -> 353 ;
354 [label="danceability <= -0.867\ngini = 0.474\nsamples = 57\nvalue = [22, 35]"] ;
282 -> 354 ;
355 [label="duration_ms <= -0.415\ngini = 0.457\nsamples = 17\nvalue = [11, 6]"] ;
354 -> 355 ;
356 [label="gini = 0.0\nsamples = 6\nvalue = [6, 0]"] ;
355 -> 356 ;
357 [label="energy <= -0.754\ngini = 0.496\nsamples = 11\nvalue = [5, 6]"] ;
355 -> 357 ;
358 [label="loudness <= -0.005\ngini = 0.469\nsamples = 8\nvalue = [5, 3]"] ;
357 -> 358 ;
359 [label="speechiness <= -0.498\ngini = 0.375\nsamples = 4\nvalue = [1, 3]"] ;
358 -> 359 ;
360 [label="gini = 0.0\nsamples = 1\nvalue = [1, 0]"] ;
359 -> 360 ;
361 [label="gini = 0.0\nsamples = 3\nvalue = [0, 3]"] ;
359 -> 361 ;
362 [label="gini = 0.0\nsamples = 4\nvalue = [4, 0]"] ;
358 -> 362 ;
363 [label="gini = 0.0\nsamples = 3\nvalue = [0, 3]"] ;
357 -> 363 ;
364 [label="danceability <= -0.479\ngini = 0.399\nsamples = 40\nvalue = [11, 29]"] ;
354 -> 364 ;
365 [label="chorus_hit <= 0.04\ngini = 0.095\nsamples = 20\nvalue = [1, 19]"] ;
364 -> 365 ;
366 [label="gini = 0.0\nsamples = 18\nvalue = [0, 18]"] ;
365 -> 366 ;
367 [label="duration_ms <= 0.224\ngini = 0.5\nsamples = 2\nvalue = [1, 1]"] ;
365 -> 367 ;
368 [label="gini = 0.0\nsamples = 1\nvalue = [1, 0]"] ;
367 -> 368 ;
369 [label="gini = 0.0\nsamples = 1\nvalue = [0, 1]"] ;
367 -> 369 ;
370 [label="loudness <= -0.124\ngini = 0.5\nsamples = 20\nvalue = [10, 10]"] ;
364 -> 370 ;
371 [label="chorus_hit <= -0.133\ngini = 0.346\nsamples = 9\nvalue = [7, 2]"] ;
370 -> 371 ;
372 [label="gini = 0.0\nsamples = 7\nvalue = [7, 0]"] ;
371 -> 372 ;
373 [label="gini = 0.0\nsamples = 2\nvalue = [0, 2]"] ;
371 -> 373 ;
374 [label="danceability <= -0.417\ngini = 0.397\nsamples = 11\nvalue = [3, 8]"] ;
370 -> 374 ;
375 [label="gini = 0.0\nsamples = 2\nvalue = [2, 0]"] ;
374 -> 375 ;
376 [label="key <= -1.333\ngini = 0.198\nsamples = 9\nvalue = [1, 8]"] ;
374 -> 376 ;
377 [label="gini = 0.0\nsamples = 1\nvalue = [1, 0]"] ;
376 -> 377 ;
378 [label="gini = 0.0\nsamples = 8\nvalue = [0, 8]"] ;
376 -> 378 ;
379 [label="speechiness <= -0.501\ngini = 0.5\nsamples = 30\nvalue = [15, 15]"] ;
281 -> 379 ;
380 [label="sections <= 0.005\ngini = 0.355\nsamples = 13\nvalue = [3, 10]"] ;
379 -> 380 ;
381 [label="gini = 0.0\nsamples = 8\nvalue = [0, 8]"] ;
380 -> 381 ;
382 [label="acousticness <= 0.039\ngini = 0.48\nsamples = 5\nvalue = [3, 2]"] ;
380 -> 382 ;
383 [label="gini = 0.0\nsamples = 2\nvalue = [0, 2]"] ;
382 -> 383 ;
384 [label="gini = 0.0\nsamples = 3\nvalue = [3, 0]"] ;
382 -> 384 ;
385 [label="chorus_hit <= 2.684\ngini = 0.415\nsamples = 17\nvalue = [12, 5]"] ;
379 -> 385 ;
386 [label="valence <= -0.589\ngini = 0.245\nsamples = 14\nvalue = [12, 2]"] ;
385 -> 386 ;
387 [label="tempo <= -1.358\ngini = 0.444\nsamples = 3\nvalue = [1, 2]"] ;
386 -> 387 ;
388 [label="gini = 0.0\nsamples = 1\nvalue = [1, 0]"] ;
387 -> 388 ;
389 [label="gini = 0.0\nsamples = 2\nvalue = [0, 2]"] ;
387 -> 389 ;
390 [label="gini = 0.0\nsamples = 11\nvalue = [11, 0]"] ;
386 -> 390 ;
391 [label="gini = 0.0\nsamples = 3\nvalue = [0, 3]"] ;
385 -> 391 ;
392 [label="tempo <= 0.252\ngini = 0.436\nsamples = 259\nvalue = [83, 176]"] ;
202 -> 392 ;
393 [label="liveness <= -0.715\ngini = 0.493\nsamples = 120\nvalue = [53, 67]"] ;
392 -> 393 ;
394 [label="danceability <= -0.277\ngini = 0.18\nsamples = 10\nvalue = [9, 1]"] ;
393 -> 394 ;
395 [label="gini = 0.0\nsamples = 9\nvalue = [9, 0]"] ;
394 -> 395 ;
396 [label="gini = 0.0\nsamples = 1\nvalue = [0, 1]"] ;
394 -> 396 ;
397 [label="duration_ms <= 0.412\ngini = 0.48\nsamples = 110\nvalue = [44, 66]"] ;
393 -> 397 ;
398 [label="liveness <= -0.37\ngini = 0.459\nsamples = 101\nvalue = [36, 65]"] ;
397 -> 398 ;
399 [label="danceability <= -0.327\ngini = 0.307\nsamples = 37\nvalue = [7, 30]"] ;
398 -> 399 ;
400 [label="loudness <= 0.589\ngini = 0.071\nsamples = 27\nvalue = [1, 26]"] ;
399 -> 400 ;
401 [label="gini = 0.0\nsamples = 1\nvalue = [1, 0]"] ;
400 -> 401 ;
402 [label="gini = 0.0\nsamples = 26\nvalue = [0, 26]"] ;
400 -> 402 ;
403 [label="danceability <= -0.294\ngini = 0.48\nsamples = 10\nvalue = [6, 4]"] ;
399 -> 403 ;
404 [label="gini = 0.0\nsamples = 5\nvalue = [5, 0]"] ;
403 -> 404 ;
405 [label="tempo <= -1.369\ngini = 0.32\nsamples = 5\nvalue = [1, 4]"] ;
403 -> 405 ;
406 [label="gini = 0.0\nsamples = 1\nvalue = [1, 0]"] ;
405 -> 406 ;
407 [label="gini = 0.0\nsamples = 4\nvalue = [0, 4]"] ;
405 -> 407 ;
408 [label="danceability <= -1.011\ngini = 0.496\nsamples = 64\nvalue = [29, 35]"] ;
398 -> 408 ;
409 [label="key <= 0.081\ngini = 0.375\nsamples = 16\nvalue = [12, 4]"] ;
408 -> 409 ;
410 [label="gini = 0.0\nsamples = 8\nvalue = [8, 0]"] ;
409 -> 410 ;
411 [label="energy <= -0.148\ngini = 0.5\nsamples = 8\nvalue = [4, 4]"] ;
409 -> 411 ;
412 [label="gini = 0.0\nsamples = 3\nvalue = [3, 0]"] ;
411 -> 412 ;
413 [label="loudness <= 1.194\ngini = 0.32\nsamples = 5\nvalue = [1, 4]"] ;
411 -> 413 ;
414 [label="gini = 0.0\nsamples = 4\nvalue = [0, 4]"] ;
413 -> 414 ;
415 [label="gini = 0.0\nsamples = 1\nvalue = [1, 0]"] ;
413 -> 415 ;
416 [label="chorus_hit <= 0.295\ngini = 0.457\nsamples = 48\nvalue = [17, 31]"] ;
408 -> 416 ;
417 [label="chorus_hit <= -0.817\ngini = 0.35\nsamples = 31\nvalue = [7, 24]"] ;
416 -> 417 ;
418 [label="duration_ms <= -0.051\ngini = 0.469\nsamples = 8\nvalue = [5, 3]"] ;
417 -> 418 ;
419 [label="gini = 0.0\nsamples = 5\nvalue = [5, 0]"] ;
418 -> 419 ;
420 [label="gini = 0.0\nsamples = 3\nvalue = [0, 3]"] ;
418 -> 420 ;
421 [label="sections <= 0.723\ngini = 0.159\nsamples = 23\nvalue = [2, 21]"] ;
417 -> 421 ;
422 [label="energy <= 0.81\ngini = 0.087\nsamples = 22\nvalue = [1, 21]"] ;
421 -> 422 ;
423 [label="gini = 0.0\nsamples = 19\nvalue = [0, 19]"] ;
422 -> 423 ;
424 [label="speechiness <= -0.469\ngini = 0.444\nsamples = 3\nvalue = [1, 2]"] ;
422 -> 424 ;
425 [label="gini = 0.0\nsamples = 2\nvalue = [0, 2]"] ;
424 -> 425 ;
426 [label="gini = 0.0\nsamples = 1\nvalue = [1, 0]"] ;
424 -> 426 ;
427 [label="gini = 0.0\nsamples = 1\nvalue = [1, 0]"] ;
421 -> 427 ;
428 [label="loudness <= 0.594\ngini = 0.484\nsamples = 17\nvalue = [10, 7]"] ;
416 -> 428 ;
429 [label="gini = 0.0\nsamples = 3\nvalue = [0, 3]"] ;
428 -> 429 ;
430 [label="danceability <= -0.409\ngini = 0.408\nsamples = 14\nvalue = [10, 4]"] ;
428 -> 430 ;
431 [label="chorus_hit <= 2.546\ngini = 0.18\nsamples = 10\nvalue = [9, 1]"] ;
430 -> 431 ;
432 [label="gini = 0.0\nsamples = 9\nvalue = [9, 0]"] ;
431 -> 432 ;
433 [label="gini = 0.0\nsamples = 1\nvalue = [0, 1]"] ;
431 -> 433 ;
434 [label="chorus_hit <= 0.755\ngini = 0.375\nsamples = 4\nvalue = [1, 3]"] ;
430 -> 434 ;
435 [label="gini = 0.0\nsamples = 1\nvalue = [1, 0]"] ;
434 -> 435 ;
436 [label="gini = 0.0\nsamples = 3\nvalue = [0, 3]"] ;
434 -> 436 ;
437 [label="danceability <= -0.266\ngini = 0.198\nsamples = 9\nvalue = [8, 1]"] ;
397 -> 437 ;
438 [label="gini = 0.0\nsamples = 8\nvalue = [8, 0]"] ;
437 -> 438 ;
439 [label="gini = 0.0\nsamples = 1\nvalue = [0, 1]"] ;
437 -> 439 ;
440 [label="loudness <= 0.733\ngini = 0.338\nsamples = 139\nvalue = [30, 109]"] ;
392 -> 440 ;
441 [label="acousticness <= -1.059\ngini = 0.476\nsamples = 46\nvalue = [18, 28]"] ;
440 -> 441 ;
442 [label="gini = 0.0\nsamples = 4\nvalue = [4, 0]"] ;
441 -> 442 ;
443 [label="valence <= -0.86\ngini = 0.444\nsamples = 42\nvalue = [14, 28]"] ;
441 -> 443 ;
444 [label="gini = 0.0\nsamples = 3\nvalue = [3, 0]"] ;
443 -> 444 ;
445 [label="valence <= -0.213\ngini = 0.405\nsamples = 39\nvalue = [11, 28]"] ;
443 -> 445 ;
446 [label="key <= -0.202\ngini = 0.236\nsamples = 22\nvalue = [3, 19]"] ;
445 -> 446 ;
447 [label="key <= -1.051\ngini = 0.397\nsamples = 11\nvalue = [3, 8]"] ;
446 -> 447 ;
448 [label="gini = 0.0\nsamples = 5\nvalue = [0, 5]"] ;
447 -> 448 ;
449 [label="danceability <= -0.575\ngini = 0.5\nsamples = 6\nvalue = [3, 3]"] ;
447 -> 449 ;
450 [label="acousticness <= 0.268\ngini = 0.375\nsamples = 4\nvalue = [3, 1]"] ;
449 -> 450 ;
451 [label="gini = 0.0\nsamples = 3\nvalue = [3, 0]"] ;
450 -> 451 ;
452 [label="gini = 0.0\nsamples = 1\nvalue = [0, 1]"] ;
450 -> 452 ;
453 [label="gini = 0.0\nsamples = 2\nvalue = [0, 2]"] ;
449 -> 453 ;
454 [label="gini = 0.0\nsamples = 11\nvalue = [0, 11]"] ;
446 -> 454 ;
455 [label="duration_ms <= 0.009\ngini = 0.498\nsamples = 17\nvalue = [8, 9]"] ;
445 -> 455 ;
456 [label="energy <= 0.669\ngini = 0.397\nsamples = 11\nvalue = [3, 8]"] ;
455 -> 456 ;
457 [label="valence <= -0.093\ngini = 0.198\nsamples = 9\nvalue = [1, 8]"] ;
456 -> 457 ;
458 [label="gini = 0.0\nsamples = 1\nvalue = [1, 0]"] ;
457 -> 458 ;
459 [label="gini = 0.0\nsamples = 8\nvalue = [0, 8]"] ;
457 -> 459 ;
460 [label="gini = 0.0\nsamples = 2\nvalue = [2, 0]"] ;
456 -> 460 ;
461 [label="acousticness <= 1.062\ngini = 0.278\nsamples = 6\nvalue = [5, 1]"] ;
455 -> 461 ;
462 [label="gini = 0.0\nsamples = 5\nvalue = [5, 0]"] ;
461 -> 462 ;
463 [label="gini = 0.0\nsamples = 1\nvalue = [0, 1]"] ;
461 -> 463 ;
464 [label="duration_ms <= -0.446\ngini = 0.225\nsamples = 93\nvalue = [12, 81]"] ;
440 -> 464 ;
465 [label="valence <= 0.582\ngini = 0.5\nsamples = 16\nvalue = [8, 8]"] ;
464 -> 465 ;
466 [label="acousticness <= 0.766\ngini = 0.219\nsamples = 8\nvalue = [7, 1]"] ;
465 -> 466 ;
467 [label="gini = 0.0\nsamples = 7\nvalue = [7, 0]"] ;
466 -> 467 ;
468 [label="gini = 0.0\nsamples = 1\nvalue = [0, 1]"] ;
466 -> 468 ;
469 [label="loudness <= 1.078\ngini = 0.219\nsamples = 8\nvalue = [1, 7]"] ;
465 -> 469 ;
470 [label="gini = 0.0\nsamples = 7\nvalue = [0, 7]"] ;
469 -> 470 ;
471 [label="gini = 0.0\nsamples = 1\nvalue = [1, 0]"] ;
469 -> 471 ;
472 [label="acousticness <= 0.777\ngini = 0.098\nsamples = 77\nvalue = [4, 73]"] ;
464 -> 472 ;
473 [label="tempo <= 0.38\ngini = 0.052\nsamples = 75\nvalue = [2, 73]"] ;
472 -> 473 ;
474 [label="danceability <= -0.299\ngini = 0.444\nsamples = 3\nvalue = [1, 2]"] ;
473 -> 474 ;
475 [label="gini = 0.0\nsamples = 2\nvalue = [0, 2]"] ;
474 -> 475 ;
476 [label="gini = 0.0\nsamples = 1\nvalue = [1, 0]"] ;
474 -> 476 ;
477 [label="energy <= 0.869\ngini = 0.027\nsamples = 72\nvalue = [1, 71]"] ;
473 -> 477 ;
478 [label="gini = 0.0\nsamples = 60\nvalue = [0, 60]"] ;
477 -> 478 ;
479 [label="energy <= 0.911\ngini = 0.153\nsamples = 12\nvalue = [1, 11]"] ;
477 -> 479 ;
480 [label="sections <= -0.303\ngini = 0.5\nsamples = 2\nvalue = [1, 1]"] ;
479 -> 480 ;
481 [label="gini = 0.0\nsamples = 1\nvalue = [0, 1]"] ;
480 -> 481 ;
482 [label="gini = 0.0\nsamples = 1\nvalue = [1, 0]"] ;
480 -> 482 ;
483 [label="gini = 0.0\nsamples = 10\nvalue = [0, 10]"] ;
479 -> 483 ;
484 [label="gini = 0.0\nsamples = 2\nvalue = [2, 0]"] ;
472 -> 484 ;
485 [label="gini = 0.0\nsamples = 5\nvalue = [5, 0]"] ;
201 -> 485 ;
486 [label="speechiness <= -0.44\ngini = 0.5\nsamples = 51\nvalue = [26, 25]"] ;
124 -> 486 ;
487 [label="loudness <= 0.763\ngini = 0.494\nsamples = 45\nvalue = [20, 25]"] ;
486 -> 487 ;
488 [label="instrumentalness <= -0.509\ngini = 0.499\nsamples = 38\nvalue = [20, 18]"] ;
487 -> 488 ;
489 [label="energy <= 0.022\ngini = 0.42\nsamples = 20\nvalue = [14, 6]"] ;
488 -> 489 ;
490 [label="loudness <= -0.884\ngini = 0.26\nsamples = 13\nvalue = [11, 2]"] ;
489 -> 490 ;
491 [label="gini = 0.0\nsamples = 1\nvalue = [0, 1]"] ;
490 -> 491 ;
492 [label="acousticness <= 0.57\ngini = 0.153\nsamples = 12\nvalue = [11, 1]"] ;
490 -> 492 ;
493 [label="gini = 0.0\nsamples = 10\nvalue = [10, 0]"] ;
492 -> 493 ;
494 [label="danceability <= -0.971\ngini = 0.5\nsamples = 2\nvalue = [1, 1]"] ;
492 -> 494 ;
495 [label="gini = 0.0\nsamples = 1\nvalue = [1, 0]"] ;
494 -> 495 ;
496 [label="gini = 0.0\nsamples = 1\nvalue = [0, 1]"] ;
494 -> 496 ;
497 [label="valence <= -0.294\ngini = 0.49\nsamples = 7\nvalue = [3, 4]"] ;
489 -> 497 ;
498 [label="danceability <= -0.946\ngini = 0.375\nsamples = 4\nvalue = [3, 1]"] ;
497 -> 498 ;
499 [label="gini = 0.0\nsamples = 1\nvalue = [0, 1]"] ;
498 -> 499 ;
500 [label="gini = 0.0\nsamples = 3\nvalue = [3, 0]"] ;
498 -> 500 ;
501 [label="gini = 0.0\nsamples = 3\nvalue = [0, 3]"] ;
497 -> 501 ;
502 [label="chorus_hit <= 0.719\ngini = 0.444\nsamples = 18\nvalue = [6, 12]"] ;
488 -> 502 ;
503 [label="sections <= 0.108\ngini = 0.26\nsamples = 13\nvalue = [2, 11]"] ;
502 -> 503 ;
504 [label="gini = 0.0\nsamples = 1\nvalue = [1, 0]"] ;
503 -> 504 ;
505 [label="acousticness <= 1.013\ngini = 0.153\nsamples = 12\nvalue = [1, 11]"] ;
503 -> 505 ;
506 [label="gini = 0.0\nsamples = 11\nvalue = [0, 11]"] ;
505 -> 506 ;
507 [label="gini = 0.0\nsamples = 1\nvalue = [1, 0]"] ;
505 -> 507 ;
508 [label="energy <= -1.166\ngini = 0.32\nsamples = 5\nvalue = [4, 1]"] ;
502 -> 508 ;
509 [label="gini = 0.0\nsamples = 1\nvalue = [0, 1]"] ;
508 -> 509 ;
510 [label="gini = 0.0\nsamples = 4\nvalue = [4, 0]"] ;
508 -> 510 ;
511 [label="gini = 0.0\nsamples = 7\nvalue = [0, 7]"] ;
487 -> 511 ;
512 [label="gini = 0.0\nsamples = 6\nvalue = [6, 0]"] ;
486 -> 512 ;
513 [label="duration_ms <= -0.983\ngini = 0.493\nsamples = 2040\nvalue = [899, 1141]"] ;
5 -> 513 ;
514 [label="valence <= 1.463\ngini = 0.224\nsamples = 78\nvalue = [68, 10]"] ;
513 -> 514 ;
515 [label="tempo <= 2.992\ngini = 0.171\nsamples = 74\nvalue = [67, 7]"] ;
514 -> 515 ;
516 [label="duration_ms <= -1.029\ngini = 0.151\nsamples = 73\nvalue = [67, 6]"] ;
515 -> 516 ;
517 [label="key <= -1.051\ngini = 0.065\nsamples = 59\nvalue = [57, 2]"] ;
516 -> 517 ;
518 [label="loudness <= 0.846\ngini = 0.245\nsamples = 14\nvalue = [12, 2]"] ;
517 -> 518 ;
519 [label="speechiness <= -0.398\ngini = 0.142\nsamples = 13\nvalue = [12, 1]"] ;
518 -> 519 ;
520 [label="tempo <= 1.117\ngini = 0.5\nsamples = 2\nvalue = [1, 1]"] ;
519 -> 520 ;
521 [label="gini = 0.0\nsamples = 1\nvalue = [0, 1]"] ;
520 -> 521 ;
522 [label="gini = 0.0\nsamples = 1\nvalue = [1, 0]"] ;
520 -> 522 ;
523 [label="gini = 0.0\nsamples = 11\nvalue = [11, 0]"] ;
519 -> 523 ;
524 [label="gini = 0.0\nsamples = 1\nvalue = [0, 1]"] ;
518 -> 524 ;
525 [label="gini = 0.0\nsamples = 45\nvalue = [45, 0]"] ;
517 -> 525 ;
526 [label="duration_ms <= -1.023\ngini = 0.408\nsamples = 14\nvalue = [10, 4]"] ;
516 -> 526 ;
527 [label="liveness <= 0.832\ngini = 0.375\nsamples = 4\nvalue = [1, 3]"] ;
526 -> 527 ;
528 [label="gini = 0.0\nsamples = 3\nvalue = [0, 3]"] ;
527 -> 528 ;
529 [label="gini = 0.0\nsamples = 1\nvalue = [1, 0]"] ;
527 -> 529 ;
530 [label="energy <= 0.414\ngini = 0.18\nsamples = 10\nvalue = [9, 1]"] ;
526 -> 530 ;
531 [label="speechiness <= -0.249\ngini = 0.5\nsamples = 2\nvalue = [1, 1]"] ;
530 -> 531 ;
532 [label="gini = 0.0\nsamples = 1\nvalue = [1, 0]"] ;
531 -> 532 ;
533 [label="gini = 0.0\nsamples = 1\nvalue = [0, 1]"] ;
531 -> 533 ;
534 [label="gini = 0.0\nsamples = 8\nvalue = [8, 0]"] ;
530 -> 534 ;
535 [label="gini = 0.0\nsamples = 1\nvalue = [0, 1]"] ;
515 -> 535 ;
536 [label="liveness <= -0.674\ngini = 0.375\nsamples = 4\nvalue = [1, 3]"] ;
514 -> 536 ;
537 [label="gini = 0.0\nsamples = 1\nvalue = [1, 0]"] ;
536 -> 537 ;
538 [label="gini = 0.0\nsamples = 3\nvalue = [0, 3]"] ;
536 -> 538 ;
539 [label="duration_ms <= 0.734\ngini = 0.488\nsamples = 1962\nvalue = [831, 1131]"] ;
513 -> 539 ;
540 [label="loudness <= -0.853\ngini = 0.479\nsamples = 1765\nvalue = [702, 1063]"] ;
539 -> 540 ;
541 [label="chorus_hit <= 1.843\ngini = 0.442\nsamples = 103\nvalue = [69, 34]"] ;
540 -> 541 ;
542 [label="key <= 1.213\ngini = 0.422\nsamples = 99\nvalue = [69, 30]"] ;
541 -> 542 ;
543 [label="instrumentalness <= -0.508\ngini = 0.444\nsamples = 90\nvalue = [60, 30]"] ;
542 -> 543 ;
544 [label="valence <= -0.292\ngini = 0.428\nsamples = 87\nvalue = [60, 27]"] ;
543 -> 544 ;
545 [label="liveness <= -0.666\ngini = 0.483\nsamples = 49\nvalue = [29, 20]"] ;
544 -> 545 ;
546 [label="gini = 0.0\nsamples = 5\nvalue = [0, 5]"] ;
545 -> 546 ;
547 [label="acousticness <= 1.022\ngini = 0.449\nsamples = 44\nvalue = [29, 15]"] ;
545 -> 547 ;
548 [label="energy <= -1.728\ngini = 0.482\nsamples = 37\nvalue = [22, 15]"] ;
547 -> 548 ;
549 [label="speechiness <= -0.422\ngini = 0.198\nsamples = 9\nvalue = [8, 1]"] ;
548 -> 549 ;
550 [label="gini = 0.0\nsamples = 1\nvalue = [0, 1]"] ;
549 -> 550 ;
551 [label="gini = 0.0\nsamples = 8\nvalue = [8, 0]"] ;
549 -> 551 ;
552 [label="duration_ms <= -0.113\ngini = 0.5\nsamples = 28\nvalue = [14, 14]"] ;
548 -> 552 ;
553 [label="duration_ms <= -0.661\ngini = 0.298\nsamples = 11\nvalue = [2, 9]"] ;
552 -> 553 ;
554 [label="gini = 0.0\nsamples = 2\nvalue = [2, 0]"] ;
553 -> 554 ;
555 [label="gini = 0.0\nsamples = 9\nvalue = [0, 9]"] ;
553 -> 555 ;
556 [label="loudness <= -1.564\ngini = 0.415\nsamples = 17\nvalue = [12, 5]"] ;
552 -> 556 ;
557 [label="gini = 0.0\nsamples = 2\nvalue = [0, 2]"] ;
556 -> 557 ;
558 [label="mode <= -0.419\ngini = 0.32\nsamples = 15\nvalue = [12, 3]"] ;
556 -> 558 ;
559 [label="key <= -0.202\ngini = 0.444\nsamples = 3\nvalue = [1, 2]"] ;
558 -> 559 ;
560 [label="gini = 0.0\nsamples = 1\nvalue = [1, 0]"] ;
559 -> 560 ;
561 [label="gini = 0.0\nsamples = 2\nvalue = [0, 2]"] ;
559 -> 561 ;
562 [label="valence <= -0.305\ngini = 0.153\nsamples = 12\nvalue = [11, 1]"] ;
558 -> 562 ;
563 [label="gini = 0.0\nsamples = 11\nvalue = [11, 0]"] ;
562 -> 563 ;
564 [label="gini = 0.0\nsamples = 1\nvalue = [0, 1]"] ;
562 -> 564 ;
565 [label="gini = 0.0\nsamples = 7\nvalue = [7, 0]"] ;
547 -> 565 ;
566 [label="duration_ms <= -0.413\ngini = 0.301\nsamples = 38\nvalue = [31, 7]"] ;
544 -> 566 ;
567 [label="liveness <= 1.731\ngini = 0.457\nsamples = 17\nvalue = [11, 6]"] ;
566 -> 567 ;
568 [label="duration_ms <= -0.582\ngini = 0.391\nsamples = 15\nvalue = [11, 4]"] ;
567 -> 568 ;
569 [label="speechiness <= -0.39\ngini = 0.18\nsamples = 10\nvalue = [9, 1]"] ;
568 -> 569 ;
570 [label="gini = 0.0\nsamples = 1\nvalue = [0, 1]"] ;
569 -> 570 ;
571 [label="gini = 0.0\nsamples = 9\nvalue = [9, 0]"] ;
569 -> 571 ;
572 [label="speechiness <= -0.359\ngini = 0.48\nsamples = 5\nvalue = [2, 3]"] ;
568 -> 572 ;
573 [label="gini = 0.0\nsamples = 2\nvalue = [2, 0]"] ;
572 -> 573 ;
574 [label="gini = 0.0\nsamples = 3\nvalue = [0, 3]"] ;
572 -> 574 ;
575 [label="gini = 0.0\nsamples = 2\nvalue = [0, 2]"] ;
567 -> 575 ;
576 [label="danceability <= -0.918\ngini = 0.091\nsamples = 21\nvalue = [20, 1]"] ;
566 -> 576 ;
577 [label="danceability <= -0.983\ngini = 0.32\nsamples = 5\nvalue = [4, 1]"] ;
576 -> 577 ;
578 [label="gini = 0.0\nsamples = 4\nvalue = [4, 0]"] ;
577 -> 578 ;
579 [label="gini = 0.0\nsamples = 1\nvalue = [0, 1]"] ;
577 -> 579 ;
580 [label="gini = 0.0\nsamples = 16\nvalue = [16, 0]"] ;
576 -> 580 ;
581 [label="gini = 0.0\nsamples = 3\nvalue = [0, 3]"] ;
543 -> 581 ;
582 [label="gini = 0.0\nsamples = 9\nvalue = [9, 0]"] ;
542 -> 582 ;
583 [label="gini = 0.0\nsamples = 4\nvalue = [0, 4]"] ;
541 -> 583 ;
584 [label="acousticness <= -1.059\ngini = 0.472\nsamples = 1662\nvalue = [633, 1029]"] ;
540 -> 584 ;
585 [label="danceability <= -0.676\ngini = 0.488\nsamples = 216\nvalue = [125, 91]"] ;
584 -> 585 ;
586 [label="duration_ms <= -0.224\ngini = 0.371\nsamples = 126\nvalue = [95, 31]"] ;
585 -> 586 ;
587 [label="duration_ms <= -0.914\ngini = 0.133\nsamples = 56\nvalue = [52, 4]"] ;
586 -> 587 ;
588 [label="gini = 0.0\nsamples = 1\nvalue = [0, 1]"] ;
587 -> 588 ;
589 [label="tempo <= 1.939\ngini = 0.103\nsamples = 55\nvalue = [52, 3]"] ;
587 -> 589 ;
590 [label="valence <= 1.171\ngini = 0.04\nsamples = 49\nvalue = [48, 1]"] ;
589 -> 590 ;
591 [label="gini = 0.0\nsamples = 45\nvalue = [45, 0]"] ;
590 -> 591 ;
592 [label="valence <= 1.21\ngini = 0.375\nsamples = 4\nvalue = [3, 1]"] ;
590 -> 592 ;
593 [label="gini = 0.0\nsamples = 1\nvalue = [0, 1]"] ;
592 -> 593 ;
594 [label="gini = 0.0\nsamples = 3\nvalue = [3, 0]"] ;
592 -> 594 ;
595 [label="acousticness <= -1.074\ngini = 0.444\nsamples = 6\nvalue = [4, 2]"] ;
589 -> 595 ;
596 [label="gini = 0.0\nsamples = 4\nvalue = [4, 0]"] ;
595 -> 596 ;
597 [label="gini = 0.0\nsamples = 2\nvalue = [0, 2]"] ;
595 -> 597 ;
598 [label="tempo <= 2.241\ngini = 0.474\nsamples = 70\nvalue = [43, 27]"] ;
586 -> 598 ;
599 [label="duration_ms <= 0.481\ngini = 0.448\nsamples = 65\nvalue = [43, 22]"] ;
598 -> 599 ;
600 [label="energy <= 1.299\ngini = 0.414\nsamples = 58\nvalue = [41, 17]"] ;
599 -> 600 ;
601 [label="speechiness <= -0.301\ngini = 0.392\nsamples = 56\nvalue = [41, 15]"] ;
600 -> 601 ;
602 [label="acousticness <= -1.073\ngini = 0.5\nsamples = 16\nvalue = [8, 8]"] ;
601 -> 602 ;
603 [label="speechiness <= -0.415\ngini = 0.219\nsamples = 8\nvalue = [1, 7]"] ;
602 -> 603 ;
604 [label="gini = 0.0\nsamples = 1\nvalue = [1, 0]"] ;
603 -> 604 ;
605 [label="gini = 0.0\nsamples = 7\nvalue = [0, 7]"] ;
603 -> 605 ;
606 [label="sections <= -0.611\ngini = 0.219\nsamples = 8\nvalue = [7, 1]"] ;
602 -> 606 ;
607 [label="gini = 0.0\nsamples = 1\nvalue = [0, 1]"] ;
606 -> 607 ;
608 [label="gini = 0.0\nsamples = 7\nvalue = [7, 0]"] ;
606 -> 608 ;
609 [label="acousticness <= -1.073\ngini = 0.289\nsamples = 40\nvalue = [33, 7]"] ;
601 -> 609 ;
610 [label="loudness <= -0.323\ngini = 0.08\nsamples = 24\nvalue = [23, 1]"] ;
609 -> 610 ;
611 [label="sections <= 0.416\ngini = 0.5\nsamples = 2\nvalue = [1, 1]"] ;
610 -> 611 ;
612 [label="gini = 0.0\nsamples = 1\nvalue = [1, 0]"] ;
611 -> 612 ;
613 [label="gini = 0.0\nsamples = 1\nvalue = [0, 1]"] ;
611 -> 613 ;
614 [label="gini = 0.0\nsamples = 22\nvalue = [22, 0]"] ;
610 -> 614 ;
615 [label="key <= -0.202\ngini = 0.469\nsamples = 16\nvalue = [10, 6]"] ;
609 -> 615 ;
616 [label="valence <= 0.327\ngini = 0.444\nsamples = 9\nvalue = [3, 6]"] ;
615 -> 616 ;
617 [label="liveness <= -0.789\ngini = 0.245\nsamples = 7\nvalue = [1, 6]"] ;
616 -> 617 ;
618 [label="gini = 0.0\nsamples = 1\nvalue = [1, 0]"] ;
617 -> 618 ;
619 [label="gini = 0.0\nsamples = 6\nvalue = [0, 6]"] ;
617 -> 619 ;
620 [label="gini = 0.0\nsamples = 2\nvalue = [2, 0]"] ;
616 -> 620 ;
621 [label="gini = 0.0\nsamples = 7\nvalue = [7, 0]"] ;
615 -> 621 ;
622 [label="gini = 0.0\nsamples = 2\nvalue = [0, 2]"] ;
600 -> 622 ;
623 [label="chorus_hit <= -0.446\ngini = 0.408\nsamples = 7\nvalue = [2, 5]"] ;
599 -> 623 ;
624 [label="gini = 0.0\nsamples = 4\nvalue = [0, 4]"] ;
623 -> 624 ;
625 [label="liveness <= -0.463\ngini = 0.444\nsamples = 3\nvalue = [2, 1]"] ;
623 -> 625 ;
626 [label="gini = 0.0\nsamples = 1\nvalue = [0, 1]"] ;
625 -> 626 ;
627 [label="gini = 0.0\nsamples = 2\nvalue = [2, 0]"] ;
625 -> 627 ;
628 [label="gini = 0.0\nsamples = 5\nvalue = [0, 5]"] ;
598 -> 628 ;
629 [label="loudness <= 0.217\ngini = 0.444\nsamples = 90\nvalue = [30, 60]"] ;
585 -> 629 ;
630 [label="liveness <= -0.679\ngini = 0.408\nsamples = 14\nvalue = [10, 4]"] ;
629 -> 630 ;
631 [label="danceability <= -0.271\ngini = 0.375\nsamples = 4\nvalue = [1, 3]"] ;
630 -> 631 ;
632 [label="gini = 0.0\nsamples = 3\nvalue = [0, 3]"] ;
631 -> 632 ;
633 [label="gini = 0.0\nsamples = 1\nvalue = [1, 0]"] ;
631 -> 633 ;
634 [label="instrumentalness <= -0.508\ngini = 0.18\nsamples = 10\nvalue = [9, 1]"] ;
630 -> 634 ;
635 [label="gini = 0.0\nsamples = 9\nvalue = [9, 0]"] ;
634 -> 635 ;
636 [label="gini = 0.0\nsamples = 1\nvalue = [0, 1]"] ;
634 -> 636 ;
637 [label="liveness <= 0.309\ngini = 0.388\nsamples = 76\nvalue = [20, 56]"] ;
629 -> 637 ;
638 [label="loudness <= 0.696\ngini = 0.26\nsamples = 52\nvalue = [8, 44]"] ;
637 -> 638 ;
639 [label="duration_ms <= -0.568\ngini = 0.496\nsamples = 11\nvalue = [5, 6]"] ;
638 -> 639 ;
640 [label="gini = 0.0\nsamples = 4\nvalue = [0, 4]"] ;
639 -> 640 ;
641 [label="liveness <= -0.376\ngini = 0.408\nsamples = 7\nvalue = [5, 2]"] ;
639 -> 641 ;
642 [label="gini = 0.0\nsamples = 4\nvalue = [4, 0]"] ;
641 -> 642 ;
643 [label="chorus_hit <= 1.691\ngini = 0.444\nsamples = 3\nvalue = [1, 2]"] ;
641 -> 643 ;
644 [label="gini = 0.0\nsamples = 2\nvalue = [0, 2]"] ;
643 -> 644 ;
645 [label="gini = 0.0\nsamples = 1\nvalue = [1, 0]"] ;
643 -> 645 ;
646 [label="duration_ms <= 0.502\ngini = 0.136\nsamples = 41\nvalue = [3, 38]"] ;
638 -> 646 ;
647 [label="key <= -1.333\ngini = 0.053\nsamples = 37\nvalue = [1, 36]"] ;
646 -> 647 ;
648 [label="energy <= 1.19\ngini = 0.375\nsamples = 4\nvalue = [1, 3]"] ;
647 -> 648 ;
649 [label="gini = 0.0\nsamples = 3\nvalue = [0, 3]"] ;
648 -> 649 ;
650 [label="gini = 0.0\nsamples = 1\nvalue = [1, 0]"] ;
648 -> 650 ;
651 [label="gini = 0.0\nsamples = 33\nvalue = [0, 33]"] ;
647 -> 651 ;
652 [label="mode <= -0.419\ngini = 0.5\nsamples = 4\nvalue = [2, 2]"] ;
646 -> 652 ;
653 [label="gini = 0.0\nsamples = 2\nvalue = [2, 0]"] ;
652 -> 653 ;
654 [label="gini = 0.0\nsamples = 2\nvalue = [0, 2]"] ;
652 -> 654 ;
655 [label="energy <= 1.019\ngini = 0.5\nsamples = 24\nvalue = [12, 12]"] ;
637 -> 655 ;
656 [label="gini = 0.0\nsamples = 6\nvalue = [0, 6]"] ;
655 -> 656 ;
657 [label="energy <= 1.235\ngini = 0.444\nsamples = 18\nvalue = [12, 6]"] ;
655 -> 657 ;
658 [label="chorus_hit <= 0.38\ngini = 0.165\nsamples = 11\nvalue = [10, 1]"] ;
657 -> 658 ;
659 [label="gini = 0.0\nsamples = 10\nvalue = [10, 0]"] ;
658 -> 659 ;
660 [label="gini = 0.0\nsamples = 1\nvalue = [0, 1]"] ;
658 -> 660 ;
661 [label="danceability <= -0.606\ngini = 0.408\nsamples = 7\nvalue = [2, 5]"] ;
657 -> 661 ;
662 [label="gini = 0.0\nsamples = 2\nvalue = [2, 0]"] ;
661 -> 662 ;
663 [label="gini = 0.0\nsamples = 5\nvalue = [0, 5]"] ;
661 -> 663 ;
664 [label="loudness <= 0.861\ngini = 0.456\nsamples = 1446\nvalue = [508, 938]"] ;
584 -> 664 ;
665 [label="mode <= -0.419\ngini = 0.472\nsamples = 1111\nvalue = [425, 686]"] ;
664 -> 665 ;
666 [label="acousticness <= -0.023\ngini = 0.499\nsamples = 273\nvalue = [132, 141]"] ;
665 -> 666 ;
667 [label="tempo <= 0.151\ngini = 0.467\nsamples = 156\nvalue = [58, 98]"] ;
666 -> 667 ;
668 [label="liveness <= -0.451\ngini = 0.496\nsamples = 70\nvalue = [38, 32]"] ;
667 -> 668 ;
669 [label="energy <= -0.368\ngini = 0.32\nsamples = 25\nvalue = [20, 5]"] ;
668 -> 669 ;
670 [label="key <= 0.505\ngini = 0.48\nsamples = 5\nvalue = [2, 3]"] ;
669 -> 670 ;
671 [label="gini = 0.0\nsamples = 3\nvalue = [0, 3]"] ;
670 -> 671 ;
672 [label="gini = 0.0\nsamples = 2\nvalue = [2, 0]"] ;
670 -> 672 ;
673 [label="danceability <= -1.435\ngini = 0.18\nsamples = 20\nvalue = [18, 2]"] ;
669 -> 673 ;
674 [label="gini = 0.0\nsamples = 1\nvalue = [0, 1]"] ;
673 -> 674 ;
675 [label="valence <= 1.111\ngini = 0.1\nsamples = 19\nvalue = [18, 1]"] ;
673 -> 675 ;
676 [label="gini = 0.0\nsamples = 17\nvalue = [17, 0]"] ;
675 -> 676 ;
677 [label="chorus_hit <= 0.102\ngini = 0.5\nsamples = 2\nvalue = [1, 1]"] ;
675 -> 677 ;
678 [label="gini = 0.0\nsamples = 1\nvalue = [1, 0]"] ;
677 -> 678 ;
679 [label="gini = 0.0\nsamples = 1\nvalue = [0, 1]"] ;
677 -> 679 ;
680 [label="energy <= 0.026\ngini = 0.48\nsamples = 45\nvalue = [18, 27]"] ;
668 -> 680 ;
681 [label="sections <= -0.713\ngini = 0.165\nsamples = 11\nvalue = [1, 10]"] ;
680 -> 681 ;
682 [label="key <= -1.051\ngini = 0.5\nsamples = 2\nvalue = [1, 1]"] ;
681 -> 682 ;
683 [label="gini = 0.0\nsamples = 1\nvalue = [1, 0]"] ;
682 -> 683 ;
684 [label="gini = 0.0\nsamples = 1\nvalue = [0, 1]"] ;
682 -> 684 ;
685 [label="gini = 0.0\nsamples = 9\nvalue = [0, 9]"] ;
681 -> 685 ;
686 [label="loudness <= 0.299\ngini = 0.5\nsamples = 34\nvalue = [17, 17]"] ;
680 -> 686 ;
687 [label="acousticness <= -0.294\ngini = 0.165\nsamples = 11\nvalue = [10, 1]"] ;
686 -> 687 ;
688 [label="gini = 0.0\nsamples = 10\nvalue = [10, 0]"] ;
687 -> 688 ;
689 [label="gini = 0.0\nsamples = 1\nvalue = [0, 1]"] ;
687 -> 689 ;
690 [label="duration_ms <= -0.752\ngini = 0.423\nsamples = 23\nvalue = [7, 16]"] ;
686 -> 690 ;
691 [label="gini = 0.0\nsamples = 2\nvalue = [2, 0]"] ;
690 -> 691 ;
692 [label="key <= 0.364\ngini = 0.363\nsamples = 21\nvalue = [5, 16]"] ;
690 -> 692 ;
693 [label="gini = 0.0\nsamples = 9\nvalue = [0, 9]"] ;
692 -> 693 ;
694 [label="danceability <= -0.642\ngini = 0.486\nsamples = 12\nvalue = [5, 7]"] ;
692 -> 694 ;
695 [label="gini = 0.0\nsamples = 6\nvalue = [0, 6]"] ;
694 -> 695 ;
696 [label="energy <= 1.099\ngini = 0.278\nsamples = 6\nvalue = [5, 1]"] ;
694 -> 696 ;
697 [label="gini = 0.0\nsamples = 5\nvalue = [5, 0]"] ;
696 -> 697 ;
698 [label="gini = 0.0\nsamples = 1\nvalue = [0, 1]"] ;
696 -> 698 ;
699 [label="danceability <= -0.867\ngini = 0.357\nsamples = 86\nvalue = [20, 66]"] ;
667 -> 699 ;
700 [label="speechiness <= -0.006\ngini = 0.482\nsamples = 32\nvalue = [13, 19]"] ;
699 -> 700 ;
701 [label="sections <= 0.313\ngini = 0.291\nsamples = 17\nvalue = [3, 14]"] ;
700 -> 701 ;
702 [label="loudness <= -0.477\ngini = 0.133\nsamples = 14\nvalue = [1, 13]"] ;
701 -> 702 ;
703 [label="gini = 0.0\nsamples = 1\nvalue = [1, 0]"] ;
702 -> 703 ;
704 [label="gini = 0.0\nsamples = 13\nvalue = [0, 13]"] ;
702 -> 704 ;
705 [label="speechiness <= -0.205\ngini = 0.444\nsamples = 3\nvalue = [2, 1]"] ;
701 -> 705 ;
706 [label="gini = 0.0\nsamples = 2\nvalue = [2, 0]"] ;
705 -> 706 ;
707 [label="gini = 0.0\nsamples = 1\nvalue = [0, 1]"] ;
705 -> 707 ;
708 [label="tempo <= 1.508\ngini = 0.444\nsamples = 15\nvalue = [10, 5]"] ;
700 -> 708 ;
709 [label="gini = 0.0\nsamples = 8\nvalue = [8, 0]"] ;
708 -> 709 ;
710 [label="key <= 0.222\ngini = 0.408\nsamples = 7\nvalue = [2, 5]"] ;
708 -> 710 ;
711 [label="danceability <= -0.926\ngini = 0.444\nsamples = 3\nvalue = [2, 1]"] ;
710 -> 711 ;
712 [label="gini = 0.0\nsamples = 2\nvalue = [2, 0]"] ;
711 -> 712 ;
713 [label="gini = 0.0\nsamples = 1\nvalue = [0, 1]"] ;
711 -> 713 ;
714 [label="gini = 0.0\nsamples = 4\nvalue = [0, 4]"] ;
710 -> 714 ;
715 [label="acousticness <= -0.247\ngini = 0.226\nsamples = 54\nvalue = [7, 47]"] ;
699 -> 715 ;
716 [label="valence <= 0.903\ngini = 0.124\nsamples = 45\nvalue = [3, 42]"] ;
715 -> 716 ;
717 [label="liveness <= 1.049\ngini = 0.049\nsamples = 40\nvalue = [1, 39]"] ;
716 -> 717 ;
718 [label="gini = 0.0\nsamples = 35\nvalue = [0, 35]"] ;
717 -> 718 ;
719 [label="valence <= 0.262\ngini = 0.32\nsamples = 5\nvalue = [1, 4]"] ;
717 -> 719 ;
720 [label="gini = 0.0\nsamples = 1\nvalue = [1, 0]"] ;
719 -> 720 ;
721 [label="gini = 0.0\nsamples = 4\nvalue = [0, 4]"] ;
719 -> 721 ;
722 [label="key <= -0.202\ngini = 0.48\nsamples = 5\nvalue = [2, 3]"] ;
716 -> 722 ;
723 [label="gini = 0.0\nsamples = 2\nvalue = [2, 0]"] ;
722 -> 723 ;
724 [label="gini = 0.0\nsamples = 3\nvalue = [0, 3]"] ;
722 -> 724 ;
725 [label="valence <= 0.597\ngini = 0.494\nsamples = 9\nvalue = [4, 5]"] ;
715 -> 725 ;
726 [label="gini = 0.0\nsamples = 3\nvalue = [3, 0]"] ;
725 -> 726 ;
727 [label="energy <= -0.129\ngini = 0.278\nsamples = 6\nvalue = [1, 5]"] ;
725 -> 727 ;
728 [label="gini = 0.0\nsamples = 1\nvalue = [1, 0]"] ;
727 -> 728 ;
729 [label="gini = 0.0\nsamples = 5\nvalue = [0, 5]"] ;
727 -> 729 ;
730 [label="acousticness <= 0.991\ngini = 0.465\nsamples = 117\nvalue = [74, 43]"] ;
666 -> 730 ;
731 [label="valence <= 0.754\ngini = 0.487\nsamples = 98\nvalue = [57, 41]"] ;
730 -> 731 ;
732 [label="speechiness <= -0.371\ngini = 0.5\nsamples = 78\nvalue = [40, 38]"] ;
731 -> 732 ;
733 [label="chorus_hit <= 0.338\ngini = 0.403\nsamples = 25\nvalue = [18, 7]"] ;
732 -> 733 ;
734 [label="tempo <= -1.098\ngini = 0.198\nsamples = 18\nvalue = [16, 2]"] ;
733 -> 734 ;
735 [label="tempo <= -1.256\ngini = 0.408\nsamples = 7\nvalue = [5, 2]"] ;
734 -> 735 ;
736 [label="gini = 0.0\nsamples = 5\nvalue = [5, 0]"] ;
735 -> 736 ;
737 [label="gini = 0.0\nsamples = 2\nvalue = [0, 2]"] ;
735 -> 737 ;
738 [label="gini = 0.0\nsamples = 11\nvalue = [11, 0]"] ;
734 -> 738 ;
739 [label="loudness <= -0.354\ngini = 0.408\nsamples = 7\nvalue = [2, 5]"] ;
733 -> 739 ;
740 [label="loudness <= -0.68\ngini = 0.444\nsamples = 3\nvalue = [2, 1]"] ;
739 -> 740 ;
741 [label="gini = 0.0\nsamples = 1\nvalue = [0, 1]"] ;
740 -> 741 ;
742 [label="gini = 0.0\nsamples = 2\nvalue = [2, 0]"] ;
740 -> 742 ;
743 [label="gini = 0.0\nsamples = 4\nvalue = [0, 4]"] ;
739 -> 743 ;
744 [label="danceability <= -0.555\ngini = 0.486\nsamples = 53\nvalue = [22, 31]"] ;
732 -> 744 ;
745 [label="duration_ms <= 0.002\ngini = 0.495\nsamples = 31\nvalue = [17, 14]"] ;
744 -> 745 ;
746 [label="loudness <= 0.237\ngini = 0.486\nsamples = 24\nvalue = [10, 14]"] ;
745 -> 746 ;
747 [label="duration_ms <= -0.639\ngini = 0.278\nsamples = 12\nvalue = [2, 10]"] ;
746 -> 747 ;
748 [label="sections <= -0.405\ngini = 0.444\nsamples = 3\nvalue = [2, 1]"] ;
747 -> 748 ;
749 [label="gini = 0.0\nsamples = 2\nvalue = [2, 0]"] ;
748 -> 749 ;
750 [label="gini = 0.0\nsamples = 1\nvalue = [0, 1]"] ;
748 -> 750 ;
751 [label="gini = 0.0\nsamples = 9\nvalue = [0, 9]"] ;
747 -> 751 ;
752 [label="acousticness <= 0.792\ngini = 0.444\nsamples = 12\nvalue = [8, 4]"] ;
746 -> 752 ;
753 [label="loudness <= 0.833\ngini = 0.198\nsamples = 9\nvalue = [8, 1]"] ;
752 -> 753 ;
754 [label="gini = 0.0\nsamples = 8\nvalue = [8, 0]"] ;
753 -> 754 ;
755 [label="gini = 0.0\nsamples = 1\nvalue = [0, 1]"] ;
753 -> 755 ;
756 [label="gini = 0.0\nsamples = 3\nvalue = [0, 3]"] ;
752 -> 756 ;
757 [label="gini = 0.0\nsamples = 7\nvalue = [7, 0]"] ;
745 -> 757 ;
758 [label="duration_ms <= -0.437\ngini = 0.351\nsamples = 22\nvalue = [5, 17]"] ;
744 -> 758 ;
759 [label="acousticness <= 0.634\ngini = 0.444\nsamples = 6\nvalue = [4, 2]"] ;
758 -> 759 ;
760 [label="gini = 0.0\nsamples = 3\nvalue = [3, 0]"] ;
759 -> 760 ;
761 [label="tempo <= -0.74\ngini = 0.444\nsamples = 3\nvalue = [1, 2]"] ;
759 -> 761 ;
762 [label="gini = 0.0\nsamples = 1\nvalue = [1, 0]"] ;
761 -> 762 ;
763 [label="gini = 0.0\nsamples = 2\nvalue = [0, 2]"] ;
761 -> 763 ;
764 [label="duration_ms <= 0.582\ngini = 0.117\nsamples = 16\nvalue = [1, 15]"] ;
758 -> 764 ;
765 [label="gini = 0.0\nsamples = 14\nvalue = [0, 14]"] ;
764 -> 765 ;
766 [label="acousticness <= 0.412\ngini = 0.5\nsamples = 2\nvalue = [1, 1]"] ;
764 -> 766 ;
767 [label="gini = 0.0\nsamples = 1\nvalue = [0, 1]"] ;
766 -> 767 ;
768 [label="gini = 0.0\nsamples = 1\nvalue = [1, 0]"] ;
766 -> 768 ;
769 [label="tempo <= 2.796\ngini = 0.255\nsamples = 20\nvalue = [17, 3]"] ;
731 -> 769 ;
770 [label="liveness <= -0.798\ngini = 0.188\nsamples = 19\nvalue = [17, 2]"] ;
769 -> 770 ;
771 [label="acousticness <= 0.895\ngini = 0.5\nsamples = 2\nvalue = [1, 1]"] ;
770 -> 771 ;
772 [label="gini = 0.0\nsamples = 1\nvalue = [1, 0]"] ;
771 -> 772 ;
773 [label="gini = 0.0\nsamples = 1\nvalue = [0, 1]"] ;
771 -> 773 ;
774 [label="energy <= 0.786\ngini = 0.111\nsamples = 17\nvalue = [16, 1]"] ;
770 -> 774 ;
775 [label="gini = 0.0\nsamples = 15\nvalue = [15, 0]"] ;
774 -> 775 ;
776 [label="acousticness <= 0.827\ngini = 0.5\nsamples = 2\nvalue = [1, 1]"] ;
774 -> 776 ;
777 [label="gini = 0.0\nsamples = 1\nvalue = [0, 1]"] ;
776 -> 777 ;
778 [label="gini = 0.0\nsamples = 1\nvalue = [1, 0]"] ;
776 -> 778 ;
779 [label="gini = 0.0\nsamples = 1\nvalue = [0, 1]"] ;
769 -> 779 ;
780 [label="tempo <= 2.902\ngini = 0.188\nsamples = 19\nvalue = [17, 2]"] ;
730 -> 780 ;
781 [label="acousticness <= 1.132\ngini = 0.105\nsamples = 18\nvalue = [17, 1]"] ;
780 -> 781 ;
782 [label="gini = 0.0\nsamples = 17\nvalue = [17, 0]"] ;
781 -> 782 ;
783 [label="gini = 0.0\nsamples = 1\nvalue = [0, 1]"] ;
781 -> 783 ;
784 [label="gini = 0.0\nsamples = 1\nvalue = [0, 1]"] ;
780 -> 784 ;
785 [label="speechiness <= 0.085\ngini = 0.455\nsamples = 838\nvalue = [293, 545]"] ;
665 -> 785 ;
786 [label="key <= 1.213\ngini = 0.438\nsamples = 675\nvalue = [219, 456]"] ;
785 -> 786 ;
787 [label="energy <= -1.037\ngini = 0.452\nsamples = 590\nvalue = [204, 386]"] ;
786 -> 787 ;
788 [label="energy <= -1.235\ngini = 0.49\nsamples = 35\nvalue = [20, 15]"] ;
787 -> 788 ;
789 [label="energy <= -1.479\ngini = 0.355\nsamples = 13\nvalue = [3, 10]"] ;
788 -> 789 ;
790 [label="loudness <= -0.58\ngini = 0.375\nsamples = 4\nvalue = [3, 1]"] ;
789 -> 790 ;
791 [label="gini = 0.0\nsamples = 3\nvalue = [3, 0]"] ;
790 -> 791 ;
792 [label="gini = 0.0\nsamples = 1\nvalue = [0, 1]"] ;
790 -> 792 ;
793 [label="gini = 0.0\nsamples = 9\nvalue = [0, 9]"] ;
789 -> 793 ;
794 [label="chorus_hit <= 1.411\ngini = 0.351\nsamples = 22\nvalue = [17, 5]"] ;
788 -> 794 ;
795 [label="tempo <= 2.235\ngini = 0.188\nsamples = 19\nvalue = [17, 2]"] ;
794 -> 795 ;
796 [label="gini = 0.0\nsamples = 17\nvalue = [17, 0]"] ;
795 -> 796 ;
797 [label="gini = 0.0\nsamples = 2\nvalue = [0, 2]"] ;
795 -> 797 ;
798 [label="gini = 0.0\nsamples = 3\nvalue = [0, 3]"] ;
794 -> 798 ;
799 [label="valence <= 1.171\ngini = 0.443\nsamples = 555\nvalue = [184, 371]"] ;
787 -> 799 ;
800 [label="danceability <= -1.064\ngini = 0.428\nsamples = 490\nvalue = [152, 338]"] ;
799 -> 800 ;
801 [label="key <= 0.93\ngini = 0.486\nsamples = 127\nvalue = [53, 74]"] ;
800 -> 801 ;
802 [label="key <= -0.768\ngini = 0.464\nsamples = 112\nvalue = [41, 71]"] ;
801 -> 802 ;
803 [label="acousticness <= -0.817\ngini = 0.498\nsamples = 47\nvalue = [25, 22]"] ;
802 -> 803 ;
804 [label="loudness <= 0.543\ngini = 0.165\nsamples = 11\nvalue = [10, 1]"] ;
803 -> 804 ;
805 [label="gini = 0.0\nsamples = 9\nvalue = [9, 0]"] ;
804 -> 805 ;
806 [label="sections <= 0.108\ngini = 0.5\nsamples = 2\nvalue = [1, 1]"] ;
804 -> 806 ;
807 [label="gini = 0.0\nsamples = 1\nvalue = [0, 1]"] ;
806 -> 807 ;
808 [label="gini = 0.0\nsamples = 1\nvalue = [1, 0]"] ;
806 -> 808 ;
809 [label="energy <= -0.493\ngini = 0.486\nsamples = 36\nvalue = [15, 21]"] ;
803 -> 809 ;
810 [label="duration_ms <= -0.442\ngini = 0.198\nsamples = 9\nvalue = [8, 1]"] ;
809 -> 810 ;
811 [label="gini = 0.0\nsamples = 1\nvalue = [0, 1]"] ;
810 -> 811 ;
812 [label="gini = 0.0\nsamples = 8\nvalue = [8, 0]"] ;
810 -> 812 ;
813 [label="loudness <= 0.157\ngini = 0.384\nsamples = 27\nvalue = [7, 20]"] ;
809 -> 813 ;
814 [label="loudness <= -0.308\ngini = 0.117\nsamples = 16\nvalue = [1, 15]"] ;
813 -> 814 ;
815 [label="gini = 0.0\nsamples = 1\nvalue = [1, 0]"] ;
814 -> 815 ;
816 [label="gini = 0.0\nsamples = 15\nvalue = [0, 15]"] ;
814 -> 816 ;
817 [label="valence <= -0.108\ngini = 0.496\nsamples = 11\nvalue = [6, 5]"] ;
813 -> 817 ;
818 [label="gini = 0.0\nsamples = 4\nvalue = [4, 0]"] ;
817 -> 818 ;
819 [label="duration_ms <= -0.872\ngini = 0.408\nsamples = 7\nvalue = [2, 5]"] ;
817 -> 819 ;
820 [label="gini = 0.0\nsamples = 1\nvalue = [1, 0]"] ;
819 -> 820 ;
821 [label="duration_ms <= 0.011\ngini = 0.278\nsamples = 6\nvalue = [1, 5]"] ;
819 -> 821 ;
822 [label="gini = 0.0\nsamples = 5\nvalue = [0, 5]"] ;
821 -> 822 ;
823 [label="gini = 0.0\nsamples = 1\nvalue = [1, 0]"] ;
821 -> 823 ;
824 [label="liveness <= -0.82\ngini = 0.371\nsamples = 65\nvalue = [16, 49]"] ;
802 -> 824 ;
825 [label="gini = 0.0\nsamples = 2\nvalue = [2, 0]"] ;
824 -> 825 ;
826 [label="loudness <= 0.819\ngini = 0.346\nsamples = 63\nvalue = [14, 49]"] ;
824 -> 826 ;
827 [label="time_signature <= 1.433\ngini = 0.316\nsamples = 61\nvalue = [12, 49]"] ;
826 -> 827 ;
828 [label="tempo <= -1.24\ngini = 0.282\nsamples = 59\nvalue = [10, 49]"] ;
827 -> 828 ;
829 [label="danceability <= -1.21\ngini = 0.48\nsamples = 5\nvalue = [3, 2]"] ;
828 -> 829 ;
830 [label="gini = 0.0\nsamples = 3\nvalue = [3, 0]"] ;
829 -> 830 ;
831 [label="gini = 0.0\nsamples = 2\nvalue = [0, 2]"] ;
829 -> 831 ;
832 [label="danceability <= -1.07\ngini = 0.226\nsamples = 54\nvalue = [7, 47]"] ;
828 -> 832 ;
833 [label="liveness <= -0.382\ngini = 0.201\nsamples = 53\nvalue = [6, 47]"] ;
832 -> 833 ;
834 [label="chorus_hit <= 0.552\ngini = 0.375\nsamples = 24\nvalue = [6, 18]"] ;
833 -> 834 ;
835 [label="key <= 0.647\ngini = 0.298\nsamples = 22\nvalue = [4, 18]"] ;
834 -> 835 ;
836 [label="energy <= -0.879\ngini = 0.188\nsamples = 19\nvalue = [2, 17]"] ;
835 -> 836 ;
837 [label="gini = 0.0\nsamples = 1\nvalue = [1, 0]"] ;
836 -> 837 ;
838 [label="tempo <= 2.306\ngini = 0.105\nsamples = 18\nvalue = [1, 17]"] ;
836 -> 838 ;
839 [label="gini = 0.0\nsamples = 15\nvalue = [0, 15]"] ;
838 -> 839 ;
840 [label="energy <= -0.566\ngini = 0.444\nsamples = 3\nvalue = [1, 2]"] ;
838 -> 840 ;
841 [label="gini = 0.0\nsamples = 1\nvalue = [1, 0]"] ;
840 -> 841 ;
842 [label="gini = 0.0\nsamples = 2\nvalue = [0, 2]"] ;
840 -> 842 ;
843 [label="duration_ms <= 0.103\ngini = 0.444\nsamples = 3\nvalue = [2, 1]"] ;
835 -> 843 ;
844 [label="gini = 0.0\nsamples = 2\nvalue = [2, 0]"] ;
843 -> 844 ;
845 [label="gini = 0.0\nsamples = 1\nvalue = [0, 1]"] ;
843 -> 845 ;
846 [label="gini = 0.0\nsamples = 2\nvalue = [2, 0]"] ;
834 -> 846 ;
847 [label="gini = 0.0\nsamples = 29\nvalue = [0, 29]"] ;
833 -> 847 ;
848 [label="gini = 0.0\nsamples = 1\nvalue = [1, 0]"] ;
832 -> 848 ;
849 [label="gini = 0.0\nsamples = 2\nvalue = [2, 0]"] ;
827 -> 849 ;
850 [label="gini = 0.0\nsamples = 2\nvalue = [2, 0]"] ;
826 -> 850 ;
851 [label="liveness <= 0.535\ngini = 0.32\nsamples = 15\nvalue = [12, 3]"] ;
801 -> 851 ;
852 [label="chorus_hit <= -1.001\ngini = 0.153\nsamples = 12\nvalue = [11, 1]"] ;
851 -> 852 ;
853 [label="energy <= -0.352\ngini = 0.5\nsamples = 2\nvalue = [1, 1]"] ;
852 -> 853 ;
854 [label="gini = 0.0\nsamples = 1\nvalue = [1, 0]"] ;
853 -> 854 ;
855 [label="gini = 0.0\nsamples = 1\nvalue = [0, 1]"] ;
853 -> 855 ;
856 [label="gini = 0.0\nsamples = 10\nvalue = [10, 0]"] ;
852 -> 856 ;
857 [label="chorus_hit <= -0.111\ngini = 0.444\nsamples = 3\nvalue = [1, 2]"] ;
851 -> 857 ;
858 [label="gini = 0.0\nsamples = 2\nvalue = [0, 2]"] ;
857 -> 858 ;
859 [label="gini = 0.0\nsamples = 1\nvalue = [1, 0]"] ;
857 -> 859 ;
860 [label="tempo <= 0.549\ngini = 0.397\nsamples = 363\nvalue = [99, 264]"] ;
800 -> 860 ;
861 [label="acousticness <= -1.012\ngini = 0.446\nsamples = 200\nvalue = [67, 133]"] ;
860 -> 861 ;
862 [label="tempo <= -0.153\ngini = 0.298\nsamples = 11\nvalue = [9, 2]"] ;
861 -> 862 ;
863 [label="gini = 0.0\nsamples = 8\nvalue = [8, 0]"] ;
862 -> 863 ;
864 [label="chorus_hit <= -0.127\ngini = 0.444\nsamples = 3\nvalue = [1, 2]"] ;
862 -> 864 ;
865 [label="gini = 0.0\nsamples = 1\nvalue = [1, 0]"] ;
864 -> 865 ;
866 [label="gini = 0.0\nsamples = 2\nvalue = [0, 2]"] ;
864 -> 866 ;
867 [label="danceability <= -0.876\ngini = 0.425\nsamples = 189\nvalue = [58, 131]"] ;
861 -> 867 ;
868 [label="energy <= -0.8\ngini = 0.159\nsamples = 23\nvalue = [2, 21]"] ;
867 -> 868 ;
869 [label="chorus_hit <= -0.04\ngini = 0.5\nsamples = 2\nvalue = [1, 1]"] ;
868 -> 869 ;
870 [label="gini = 0.0\nsamples = 1\nvalue = [0, 1]"] ;
869 -> 870 ;
871 [label="gini = 0.0\nsamples = 1\nvalue = [1, 0]"] ;
869 -> 871 ;
872 [label="key <= 0.788\ngini = 0.091\nsamples = 21\nvalue = [1, 20]"] ;
868 -> 872 ;
873 [label="gini = 0.0\nsamples = 18\nvalue = [0, 18]"] ;
872 -> 873 ;
874 [label="acousticness <= -0.508\ngini = 0.444\nsamples = 3\nvalue = [1, 2]"] ;
872 -> 874 ;
875 [label="gini = 0.0\nsamples = 1\nvalue = [1, 0]"] ;
874 -> 875 ;
876 [label="gini = 0.0\nsamples = 2\nvalue = [0, 2]"] ;
874 -> 876 ;
877 [label="tempo <= -1.291\ngini = 0.447\nsamples = 166\nvalue = [56, 110]"] ;
867 -> 877 ;
878 [label="acousticness <= 1.011\ngini = 0.227\nsamples = 23\nvalue = [3, 20]"] ;
877 -> 878 ;
879 [label="energy <= -0.976\ngini = 0.165\nsamples = 22\nvalue = [2, 20]"] ;
878 -> 879 ;
880 [label="gini = 0.0\nsamples = 1\nvalue = [1, 0]"] ;
879 -> 880 ;
881 [label="instrumentalness <= -0.507\ngini = 0.091\nsamples = 21\nvalue = [1, 20]"] ;
879 -> 881 ;
882 [label="gini = 0.0\nsamples = 19\nvalue = [0, 19]"] ;
881 -> 882 ;
883 [label="energy <= 0.01\ngini = 0.5\nsamples = 2\nvalue = [1, 1]"] ;
881 -> 883 ;
884 [label="gini = 0.0\nsamples = 1\nvalue = [1, 0]"] ;
883 -> 884 ;
885 [label="gini = 0.0\nsamples = 1\nvalue = [0, 1]"] ;
883 -> 885 ;
886 [label="gini = 0.0\nsamples = 1\nvalue = [1, 0]"] ;
878 -> 886 ;
887 [label="loudness <= 0.396\ngini = 0.467\nsamples = 143\nvalue = [53, 90]"] ;
877 -> 887 ;
888 [label="acousticness <= 0.274\ngini = 0.431\nsamples = 105\nvalue = [33, 72]"] ;
887 -> 888 ;
889 [label="acousticness <= -0.129\ngini = 0.479\nsamples = 73\nvalue = [29, 44]"] ;
888 -> 889 ;
890 [label="chorus_hit <= 0.557\ngini = 0.411\nsamples = 45\nvalue = [13, 32]"] ;
889 -> 890 ;
891 [label="speechiness <= -0.412\ngini = 0.291\nsamples = 34\nvalue = [6, 28]"] ;
890 -> 891 ;
892 [label="loudness <= -0.157\ngini = 0.49\nsamples = 7\nvalue = [4, 3]"] ;
891 -> 892 ;
893 [label="gini = 0.0\nsamples = 4\nvalue = [4, 0]"] ;
892 -> 893 ;
894 [label="gini = 0.0\nsamples = 3\nvalue = [0, 3]"] ;
892 -> 894 ;
895 [label="tempo <= 0.395\ngini = 0.137\nsamples = 27\nvalue = [2, 25]"] ;
891 -> 895 ;
896 [label="gini = 0.0\nsamples = 24\nvalue = [0, 24]"] ;
895 -> 896 ;
897 [label="valence <= -0.151\ngini = 0.444\nsamples = 3\nvalue = [2, 1]"] ;
895 -> 897 ;
898 [label="gini = 0.0\nsamples = 2\nvalue = [2, 0]"] ;
897 -> 898 ;
899 [label="gini = 0.0\nsamples = 1\nvalue = [0, 1]"] ;
897 -> 899 ;
900 [label="duration_ms <= -0.135\ngini = 0.463\nsamples = 11\nvalue = [7, 4]"] ;
890 -> 900 ;
901 [label="duration_ms <= -0.619\ngini = 0.219\nsamples = 8\nvalue = [7, 1]"] ;
900 -> 901 ;
902 [label="gini = 0.0\nsamples = 1\nvalue = [0, 1]"] ;
901 -> 902 ;
903 [label="gini = 0.0\nsamples = 7\nvalue = [7, 0]"] ;
901 -> 903 ;
904 [label="gini = 0.0\nsamples = 3\nvalue = [0, 3]"] ;
900 -> 904 ;
905 [label="speechiness <= -0.293\ngini = 0.49\nsamples = 28\nvalue = [16, 12]"] ;
889 -> 905 ;
906 [label="speechiness <= -0.414\ngini = 0.375\nsamples = 16\nvalue = [12, 4]"] ;
905 -> 906 ;
907 [label="liveness <= -0.35\ngini = 0.375\nsamples = 4\nvalue = [1, 3]"] ;
906 -> 907 ;
908 [label="gini = 0.0\nsamples = 1\nvalue = [1, 0]"] ;
907 -> 908 ;
909 [label="gini = 0.0\nsamples = 3\nvalue = [0, 3]"] ;
907 -> 909 ;
910 [label="energy <= -0.966\ngini = 0.153\nsamples = 12\nvalue = [11, 1]"] ;
906 -> 910 ;
911 [label="gini = 0.0\nsamples = 1\nvalue = [0, 1]"] ;
910 -> 911 ;
912 [label="gini = 0.0\nsamples = 11\nvalue = [11, 0]"] ;
910 -> 912 ;
913 [label="key <= -0.626\ngini = 0.444\nsamples = 12\nvalue = [4, 8]"] ;
905 -> 913 ;
914 [label="gini = 0.0\nsamples = 2\nvalue = [2, 0]"] ;
913 -> 914 ;
915 [label="liveness <= -0.811\ngini = 0.32\nsamples = 10\nvalue = [2, 8]"] ;
913 -> 915 ;
916 [label="gini = 0.0\nsamples = 2\nvalue = [2, 0]"] ;
915 -> 916 ;
917 [label="gini = 0.0\nsamples = 8\nvalue = [0, 8]"] ;
915 -> 917 ;
918 [label="valence <= -0.862\ngini = 0.219\nsamples = 32\nvalue = [4, 28]"] ;
888 -> 918 ;
919 [label="energy <= -0.903\ngini = 0.444\nsamples = 3\nvalue = [2, 1]"] ;
918 -> 919 ;
920 [label="gini = 0.0\nsamples = 1\nvalue = [0, 1]"] ;
919 -> 920 ;
921 [label="gini = 0.0\nsamples = 2\nvalue = [2, 0]"] ;
919 -> 921 ;
922 [label="time_signature <= -0.93\ngini = 0.128\nsamples = 29\nvalue = [2, 27]"] ;
918 -> 922 ;
923 [label="acousticness <= 0.828\ngini = 0.5\nsamples = 2\nvalue = [1, 1]"] ;
922 -> 923 ;
924 [label="gini = 0.0\nsamples = 1\nvalue = [1, 0]"] ;
923 -> 924 ;
925 [label="gini = 0.0\nsamples = 1\nvalue = [0, 1]"] ;
923 -> 925 ;
926 [label="liveness <= -0.639\ngini = 0.071\nsamples = 27\nvalue = [1, 26]"] ;
922 -> 926 ;
927 [label="sections <= -0.2\ngini = 0.444\nsamples = 3\nvalue = [1, 2]"] ;
926 -> 927 ;
928 [label="gini = 0.0\nsamples = 1\nvalue = [1, 0]"] ;
927 -> 928 ;
929 [label="gini = 0.0\nsamples = 2\nvalue = [0, 2]"] ;
927 -> 929 ;
930 [label="gini = 0.0\nsamples = 24\nvalue = [0, 24]"] ;
926 -> 930 ;
931 [label="speechiness <= -0.318\ngini = 0.499\nsamples = 38\nvalue = [20, 18]"] ;
887 -> 931 ;
932 [label="acousticness <= 0.666\ngini = 0.375\nsamples = 20\nvalue = [5, 15]"] ;
931 -> 932 ;
933 [label="gini = 0.0\nsamples = 14\nvalue = [0, 14]"] ;
932 -> 933 ;
934 [label="chorus_hit <= 1.327\ngini = 0.278\nsamples = 6\nvalue = [5, 1]"] ;
932 -> 934 ;
935 [label="gini = 0.0\nsamples = 5\nvalue = [5, 0]"] ;
934 -> 935 ;
936 [label="gini = 0.0\nsamples = 1\nvalue = [0, 1]"] ;
934 -> 936 ;
937 [label="speechiness <= -0.073\ngini = 0.278\nsamples = 18\nvalue = [15, 3]"] ;
931 -> 937 ;
938 [label="danceability <= -0.597\ngini = 0.124\nsamples = 15\nvalue = [14, 1]"] ;
937 -> 938 ;
939 [label="acousticness <= -0.055\ngini = 0.444\nsamples = 3\nvalue = [2, 1]"] ;
938 -> 939 ;
940 [label="gini = 0.0\nsamples = 1\nvalue = [0, 1]"] ;
939 -> 940 ;
941 [label="gini = 0.0\nsamples = 2\nvalue = [2, 0]"] ;
939 -> 941 ;
942 [label="gini = 0.0\nsamples = 12\nvalue = [12, 0]"] ;
938 -> 942 ;
943 [label="time_signature <= -3.294\ngini = 0.444\nsamples = 3\nvalue = [1, 2]"] ;
937 -> 943 ;
944 [label="gini = 0.0\nsamples = 1\nvalue = [1, 0]"] ;
943 -> 944 ;
945 [label="gini = 0.0\nsamples = 2\nvalue = [0, 2]"] ;
943 -> 945 ;
946 [label="liveness <= 0.245\ngini = 0.316\nsamples = 163\nvalue = [32, 131]"] ;
860 -> 946 ;
947 [label="loudness <= 0.855\ngini = 0.224\nsamples = 109\nvalue = [14, 95]"] ;
946 -> 947 ;
948 [label="valence <= 0.486\ngini = 0.199\nsamples = 107\nvalue = [12, 95]"] ;
947 -> 948 ;
949 [label="chorus_hit <= -1.135\ngini = 0.032\nsamples = 62\nvalue = [1, 61]"] ;
948 -> 949 ;
950 [label="gini = 0.0\nsamples = 1\nvalue = [1, 0]"] ;
949 -> 950 ;
951 [label="gini = 0.0\nsamples = 61\nvalue = [0, 61]"] ;
949 -> 951 ;
952 [label="chorus_hit <= -0.393\ngini = 0.369\nsamples = 45\nvalue = [11, 34]"] ;
948 -> 952 ;
953 [label="danceability <= -1.025\ngini = 0.1\nsamples = 19\nvalue = [1, 18]"] ;
952 -> 953 ;
954 [label="gini = 0.0\nsamples = 1\nvalue = [1, 0]"] ;
953 -> 954 ;
955 [label="gini = 0.0\nsamples = 18\nvalue = [0, 18]"] ;
953 -> 955 ;
956 [label="liveness <= -0.483\ngini = 0.473\nsamples = 26\nvalue = [10, 16]"] ;
952 -> 956 ;
957 [label="chorus_hit <= 0.444\ngini = 0.459\nsamples = 14\nvalue = [9, 5]"] ;
956 -> 957 ;
958 [label="loudness <= -0.329\ngini = 0.298\nsamples = 11\nvalue = [9, 2]"] ;
957 -> 958 ;
959 [label="gini = 0.0\nsamples = 1\nvalue = [0, 1]"] ;
958 -> 959 ;
960 [label="acousticness <= 0.662\ngini = 0.18\nsamples = 10\nvalue = [9, 1]"] ;
958 -> 960 ;
961 [label="gini = 0.0\nsamples = 9\nvalue = [9, 0]"] ;
960 -> 961 ;
962 [label="gini = 0.0\nsamples = 1\nvalue = [0, 1]"] ;
960 -> 962 ;
963 [label="gini = 0.0\nsamples = 3\nvalue = [0, 3]"] ;
957 -> 963 ;
964 [label="energy <= -0.433\ngini = 0.153\nsamples = 12\nvalue = [1, 11]"] ;
956 -> 964 ;
965 [label="gini = 0.0\nsamples = 1\nvalue = [1, 0]"] ;
964 -> 965 ;
966 [label="gini = 0.0\nsamples = 11\nvalue = [0, 11]"] ;
964 -> 966 ;
967 [label="gini = 0.0\nsamples = 2\nvalue = [2, 0]"] ;
947 -> 967 ;
968 [label="liveness <= 0.387\ngini = 0.444\nsamples = 54\nvalue = [18, 36]"] ;
946 -> 968 ;
969 [label="duration_ms <= -0.791\ngini = 0.278\nsamples = 6\nvalue = [5, 1]"] ;
968 -> 969 ;
970 [label="gini = 0.0\nsamples = 1\nvalue = [0, 1]"] ;
969 -> 970 ;
971 [label="gini = 0.0\nsamples = 5\nvalue = [5, 0]"] ;
969 -> 971 ;
972 [label="chorus_hit <= -0.379\ngini = 0.395\nsamples = 48\nvalue = [13, 35]"] ;
968 -> 972 ;
973 [label="valence <= 0.554\ngini = 0.499\nsamples = 19\nvalue = [9, 10]"] ;
972 -> 973 ;
974 [label="speechiness <= -0.382\ngini = 0.444\nsamples = 12\nvalue = [8, 4]"] ;
973 -> 974 ;
975 [label="gini = 0.0\nsamples = 2\nvalue = [0, 2]"] ;
974 -> 975 ;
976 [label="loudness <= 0.625\ngini = 0.32\nsamples = 10\nvalue = [8, 2]"] ;
974 -> 976 ;
977 [label="gini = 0.0\nsamples = 7\nvalue = [7, 0]"] ;
976 -> 977 ;
978 [label="sections <= -0.098\ngini = 0.444\nsamples = 3\nvalue = [1, 2]"] ;
976 -> 978 ;
979 [label="gini = 0.0\nsamples = 1\nvalue = [1, 0]"] ;
978 -> 979 ;
980 [label="gini = 0.0\nsamples = 2\nvalue = [0, 2]"] ;
978 -> 980 ;
981 [label="loudness <= 0.638\ngini = 0.245\nsamples = 7\nvalue = [1, 6]"] ;
973 -> 981 ;
982 [label="gini = 0.0\nsamples = 6\nvalue = [0, 6]"] ;
981 -> 982 ;
983 [label="gini = 0.0\nsamples = 1\nvalue = [1, 0]"] ;
981 -> 983 ;
984 [label="loudness <= -0.754\ngini = 0.238\nsamples = 29\nvalue = [4, 25]"] ;
972 -> 984 ;
985 [label="gini = 0.0\nsamples = 1\nvalue = [1, 0]"] ;
984 -> 985 ;
986 [label="loudness <= 0.338\ngini = 0.191\nsamples = 28\nvalue = [3, 25]"] ;
984 -> 986 ;
987 [label="gini = 0.0\nsamples = 15\nvalue = [0, 15]"] ;
986 -> 987 ;
988 [label="loudness <= 0.598\ngini = 0.355\nsamples = 13\nvalue = [3, 10]"] ;
986 -> 988 ;
989 [label="acousticness <= -0.897\ngini = 0.48\nsamples = 5\nvalue = [3, 2]"] ;
988 -> 989 ;
990 [label="gini = 0.0\nsamples = 2\nvalue = [0, 2]"] ;
989 -> 990 ;
991 [label="gini = 0.0\nsamples = 3\nvalue = [3, 0]"] ;
989 -> 991 ;
992 [label="gini = 0.0\nsamples = 8\nvalue = [0, 8]"] ;
988 -> 992 ;
993 [label="loudness <= 0.481\ngini = 0.5\nsamples = 65\nvalue = [32, 33]"] ;
799 -> 993 ;
994 [label="liveness <= -0.295\ngini = 0.474\nsamples = 44\nvalue = [17, 27]"] ;
993 -> 994 ;
995 [label="energy <= 0.631\ngini = 0.465\nsamples = 19\nvalue = [12, 7]"] ;
994 -> 995 ;
996 [label="gini = 0.0\nsamples = 11\nvalue = [11, 0]"] ;
995 -> 996 ;
997 [label="instrumentalness <= -0.508\ngini = 0.219\nsamples = 8\nvalue = [1, 7]"] ;
995 -> 997 ;
998 [label="gini = 0.0\nsamples = 7\nvalue = [0, 7]"] ;
997 -> 998 ;
999 [label="gini = 0.0\nsamples = 1\nvalue = [1, 0]"] ;
997 -> 999 ;
1000 [label="danceability <= -0.266\ngini = 0.32\nsamples = 25\nvalue = [5, 20]"] ;
994 -> 1000 ;
1001 [label="valence <= 1.218\ngini = 0.227\nsamples = 23\nvalue = [3, 20]"] ;
1000 -> 1001 ;
1002 [label="gini = 0.0\nsamples = 1\nvalue = [1, 0]"] ;
1001 -> 1002 ;
1003 [label="duration_ms <= -0.421\ngini = 0.165\nsamples = 22\nvalue = [2, 20]"] ;
1001 -> 1003 ;
1004 [label="gini = 0.0\nsamples = 16\nvalue = [0, 16]"] ;
1003 -> 1004 ;
1005 [label="duration_ms <= -0.396\ngini = 0.444\nsamples = 6\nvalue = [2, 4]"] ;
1003 -> 1005 ;
1006 [label="gini = 0.0\nsamples = 2\nvalue = [2, 0]"] ;
1005 -> 1006 ;
1007 [label="gini = 0.0\nsamples = 4\nvalue = [0, 4]"] ;
1005 -> 1007 ;
1008 [label="gini = 0.0\nsamples = 2\nvalue = [2, 0]"] ;
1000 -> 1008 ;
1009 [label="instrumentalness <= -0.509\ngini = 0.408\nsamples = 21\nvalue = [15, 6]"] ;
993 -> 1009 ;
1010 [label="tempo <= 1.644\ngini = 0.332\nsamples = 19\nvalue = [15, 4]"] ;
1009 -> 1010 ;
1011 [label="gini = 0.0\nsamples = 12\nvalue = [12, 0]"] ;
1010 -> 1011 ;
1012 [label="time_signature <= -0.93\ngini = 0.49\nsamples = 7\nvalue = [3, 4]"] ;
1010 -> 1012 ;
1013 [label="gini = 0.0\nsamples = 3\nvalue = [3, 0]"] ;
1012 -> 1013 ;
1014 [label="gini = 0.0\nsamples = 4\nvalue = [0, 4]"] ;
1012 -> 1014 ;
1015 [label="gini = 0.0\nsamples = 2\nvalue = [0, 2]"] ;
1009 -> 1015 ;
1016 [label="speechiness <= -0.023\ngini = 0.291\nsamples = 85\nvalue = [15, 70]"] ;
786 -> 1016 ;
1017 [label="instrumentalness <= -0.507\ngini = 0.264\nsamples = 83\nvalue = [13, 70]"] ;
1016 -> 1017 ;
1018 [label="speechiness <= -0.405\ngini = 0.25\nsamples = 82\nvalue = [12, 70]"] ;
1017 -> 1018 ;
1019 [label="duration_ms <= -0.406\ngini = 0.444\nsamples = 15\nvalue = [5, 10]"] ;
1018 -> 1019 ;
1020 [label="liveness <= -0.145\ngini = 0.469\nsamples = 8\nvalue = [5, 3]"] ;
1019 -> 1020 ;
1021 [label="tempo <= 1.968\ngini = 0.375\nsamples = 4\nvalue = [1, 3]"] ;
1020 -> 1021 ;
1022 [label="gini = 0.0\nsamples = 3\nvalue = [0, 3]"] ;
1021 -> 1022 ;
1023 [label="gini = 0.0\nsamples = 1\nvalue = [1, 0]"] ;
1021 -> 1023 ;
1024 [label="gini = 0.0\nsamples = 4\nvalue = [4, 0]"] ;
1020 -> 1024 ;
1025 [label="gini = 0.0\nsamples = 7\nvalue = [0, 7]"] ;
1019 -> 1025 ;
1026 [label="danceability <= -0.268\ngini = 0.187\nsamples = 67\nvalue = [7, 60]"] ;
1018 -> 1026 ;
1027 [label="liveness <= -0.854\ngini = 0.165\nsamples = 66\nvalue = [6, 60]"] ;
1026 -> 1027 ;
1028 [label="acousticness <= -0.328\ngini = 0.5\nsamples = 4\nvalue = [2, 2]"] ;
1027 -> 1028 ;
1029 [label="gini = 0.0\nsamples = 2\nvalue = [2, 0]"] ;
1028 -> 1029 ;
1030 [label="gini = 0.0\nsamples = 2\nvalue = [0, 2]"] ;
1028 -> 1030 ;
1031 [label="speechiness <= -0.104\ngini = 0.121\nsamples = 62\nvalue = [4, 58]"] ;
1027 -> 1031 ;
1032 [label="sections <= 0.21\ngini = 0.068\nsamples = 57\nvalue = [2, 55]"] ;
1031 -> 1032 ;
1033 [label="gini = 0.0\nsamples = 44\nvalue = [0, 44]"] ;
1032 -> 1033 ;
1034 [label="liveness <= -0.434\ngini = 0.26\nsamples = 13\nvalue = [2, 11]"] ;
1032 -> 1034 ;
1035 [label="gini = 0.0\nsamples = 1\nvalue = [1, 0]"] ;
1034 -> 1035 ;
1036 [label="chorus_hit <= -1.021\ngini = 0.153\nsamples = 12\nvalue = [1, 11]"] ;
1034 -> 1036 ;
1037 [label="duration_ms <= 0.104\ngini = 0.5\nsamples = 2\nvalue = [1, 1]"] ;
1036 -> 1037 ;
1038 [label="gini = 0.0\nsamples = 1\nvalue = [0, 1]"] ;
1037 -> 1038 ;
1039 [label="gini = 0.0\nsamples = 1\nvalue = [1, 0]"] ;
1037 -> 1039 ;
1040 [label="gini = 0.0\nsamples = 10\nvalue = [0, 10]"] ;
1036 -> 1040 ;
1041 [label="energy <= 0.574\ngini = 0.48\nsamples = 5\nvalue = [2, 3]"] ;
1031 -> 1041 ;
1042 [label="gini = 0.0\nsamples = 3\nvalue = [0, 3]"] ;
1041 -> 1042 ;
1043 [label="gini = 0.0\nsamples = 2\nvalue = [2, 0]"] ;
1041 -> 1043 ;
1044 [label="gini = 0.0\nsamples = 1\nvalue = [1, 0]"] ;
1026 -> 1044 ;
1045 [label="gini = 0.0\nsamples = 1\nvalue = [1, 0]"] ;
1017 -> 1045 ;
1046 [label="gini = 0.0\nsamples = 2\nvalue = [2, 0]"] ;
1016 -> 1046 ;
1047 [label="time_signature <= -0.93\ngini = 0.496\nsamples = 163\nvalue = [74, 89]"] ;
785 -> 1047 ;
1048 [label="chorus_hit <= -1.033\ngini = 0.266\nsamples = 19\nvalue = [16, 3]"] ;
1047 -> 1048 ;
1049 [label="gini = 0.0\nsamples = 2\nvalue = [0, 2]"] ;
1048 -> 1049 ;
1050 [label="liveness <= 2.971\ngini = 0.111\nsamples = 17\nvalue = [16, 1]"] ;
1048 -> 1050 ;
1051 [label="gini = 0.0\nsamples = 16\nvalue = [16, 0]"] ;
1050 -> 1051 ;
1052 [label="gini = 0.0\nsamples = 1\nvalue = [0, 1]"] ;
1050 -> 1052 ;
1053 [label="energy <= 0.232\ngini = 0.481\nsamples = 144\nvalue = [58, 86]"] ;
1047 -> 1053 ;
1054 [label="valence <= 0.993\ngini = 0.357\nsamples = 43\nvalue = [10, 33]"] ;
1053 -> 1054 ;
1055 [label="sections <= 0.723\ngini = 0.202\nsamples = 35\nvalue = [4, 31]"] ;
1054 -> 1055 ;
1056 [label="liveness <= -0.396\ngini = 0.161\nsamples = 34\nvalue = [3, 31]"] ;
1055 -> 1056 ;
1057 [label="loudness <= 0.057\ngini = 0.337\nsamples = 14\nvalue = [3, 11]"] ;
1056 -> 1057 ;
1058 [label="loudness <= -0.381\ngini = 0.5\nsamples = 6\nvalue = [3, 3]"] ;
1057 -> 1058 ;
1059 [label="gini = 0.0\nsamples = 2\nvalue = [0, 2]"] ;
1058 -> 1059 ;
1060 [label="danceability <= -0.938\ngini = 0.375\nsamples = 4\nvalue = [3, 1]"] ;
1058 -> 1060 ;
1061 [label="gini = 0.0\nsamples = 1\nvalue = [0, 1]"] ;
1060 -> 1061 ;
1062 [label="gini = 0.0\nsamples = 3\nvalue = [3, 0]"] ;
1060 -> 1062 ;
1063 [label="gini = 0.0\nsamples = 8\nvalue = [0, 8]"] ;
1057 -> 1063 ;
1064 [label="gini = 0.0\nsamples = 20\nvalue = [0, 20]"] ;
1056 -> 1064 ;
1065 [label="gini = 0.0\nsamples = 1\nvalue = [1, 0]"] ;
1055 -> 1065 ;
1066 [label="danceability <= -0.387\ngini = 0.375\nsamples = 8\nvalue = [6, 2]"] ;
1054 -> 1066 ;
1067 [label="gini = 0.0\nsamples = 5\nvalue = [5, 0]"] ;
1066 -> 1067 ;
1068 [label="valence <= 1.233\ngini = 0.444\nsamples = 3\nvalue = [1, 2]"] ;
1066 -> 1068 ;
1069 [label="gini = 0.0\nsamples = 1\nvalue = [1, 0]"] ;
1068 -> 1069 ;
1070 [label="gini = 0.0\nsamples = 2\nvalue = [0, 2]"] ;
1068 -> 1070 ;
1071 [label="loudness <= -0.176\ngini = 0.499\nsamples = 101\nvalue = [48, 53]"] ;
1053 -> 1071 ;
1072 [label="chorus_hit <= -1.141\ngini = 0.18\nsamples = 10\nvalue = [9, 1]"] ;
1071 -> 1072 ;
1073 [label="gini = 0.0\nsamples = 1\nvalue = [0, 1]"] ;
1072 -> 1073 ;
1074 [label="gini = 0.0\nsamples = 9\nvalue = [9, 0]"] ;
1072 -> 1074 ;
1075 [label="duration_ms <= -0.846\ngini = 0.49\nsamples = 91\nvalue = [39, 52]"] ;
1071 -> 1075 ;
1076 [label="time_signature <= 1.433\ngini = 0.18\nsamples = 10\nvalue = [1, 9]"] ;
1075 -> 1076 ;
1077 [label="gini = 0.0\nsamples = 9\nvalue = [0, 9]"] ;
1076 -> 1077 ;
1078 [label="gini = 0.0\nsamples = 1\nvalue = [1, 0]"] ;
1076 -> 1078 ;
1079 [label="duration_ms <= -0.153\ngini = 0.498\nsamples = 81\nvalue = [38, 43]"] ;
1075 -> 1079 ;
1080 [label="valence <= 0.193\ngini = 0.484\nsamples = 51\nvalue = [30, 21]"] ;
1079 -> 1080 ;
1081 [label="tempo <= -0.909\ngini = 0.105\nsamples = 18\nvalue = [17, 1]"] ;
1080 -> 1081 ;
1082 [label="instrumentalness <= -0.509\ngini = 0.5\nsamples = 2\nvalue = [1, 1]"] ;
1081 -> 1082 ;
1083 [label="gini = 0.0\nsamples = 1\nvalue = [1, 0]"] ;
1082 -> 1083 ;
1084 [label="gini = 0.0\nsamples = 1\nvalue = [0, 1]"] ;
1082 -> 1084 ;
1085 [label="gini = 0.0\nsamples = 16\nvalue = [16, 0]"] ;
1081 -> 1085 ;
1086 [label="instrumentalness <= -0.509\ngini = 0.478\nsamples = 33\nvalue = [13, 20]"] ;
1080 -> 1086 ;
1087 [label="loudness <= 0.372\ngini = 0.496\nsamples = 22\nvalue = [12, 10]"] ;
1086 -> 1087 ;
1088 [label="duration_ms <= -0.249\ngini = 0.375\nsamples = 8\nvalue = [2, 6]"] ;
1087 -> 1088 ;
1089 [label="gini = 0.0\nsamples = 6\nvalue = [0, 6]"] ;
1088 -> 1089 ;
1090 [label="gini = 0.0\nsamples = 2\nvalue = [2, 0]"] ;
1088 -> 1090 ;
1091 [label="loudness <= 0.749\ngini = 0.408\nsamples = 14\nvalue = [10, 4]"] ;
1087 -> 1091 ;
1092 [label="gini = 0.0\nsamples = 8\nvalue = [8, 0]"] ;
1091 -> 1092 ;
1093 [label="liveness <= -0.397\ngini = 0.444\nsamples = 6\nvalue = [2, 4]"] ;
1091 -> 1093 ;
1094 [label="gini = 0.0\nsamples = 2\nvalue = [2, 0]"] ;
1093 -> 1094 ;
1095 [label="gini = 0.0\nsamples = 4\nvalue = [0, 4]"] ;
1093 -> 1095 ;
1096 [label="danceability <= -1.188\ngini = 0.165\nsamples = 11\nvalue = [1, 10]"] ;
1086 -> 1096 ;
1097 [label="gini = 0.0\nsamples = 1\nvalue = [1, 0]"] ;
1096 -> 1097 ;
1098 [label="gini = 0.0\nsamples = 10\nvalue = [0, 10]"] ;
1096 -> 1098 ;
1099 [label="energy <= 1.174\ngini = 0.391\nsamples = 30\nvalue = [8, 22]"] ;
1079 -> 1099 ;
1100 [label="acousticness <= 0.135\ngini = 0.302\nsamples = 27\nvalue = [5, 22]"] ;
1099 -> 1100 ;
1101 [label="gini = 0.0\nsamples = 19\nvalue = [0, 19]"] ;
1100 -> 1101 ;
1102 [label="liveness <= 1.205\ngini = 0.469\nsamples = 8\nvalue = [5, 3]"] ;
1100 -> 1102 ;
1103 [label="gini = 0.0\nsamples = 5\nvalue = [5, 0]"] ;
1102 -> 1103 ;
1104 [label="gini = 0.0\nsamples = 3\nvalue = [0, 3]"] ;
1102 -> 1104 ;
1105 [label="gini = 0.0\nsamples = 3\nvalue = [3, 0]"] ;
1099 -> 1105 ;
1106 [label="time_signature <= -0.93\ngini = 0.373\nsamples = 335\nvalue = [83, 252]"] ;
664 -> 1106 ;
1107 [label="valence <= -0.393\ngini = 0.5\nsamples = 39\nvalue = [20, 19]"] ;
1106 -> 1107 ;
1108 [label="acousticness <= -0.954\ngini = 0.305\nsamples = 16\nvalue = [3, 13]"] ;
1107 -> 1108 ;
1109 [label="loudness <= 1.278\ngini = 0.375\nsamples = 4\nvalue = [3, 1]"] ;
1108 -> 1109 ;
1110 [label="gini = 0.0\nsamples = 3\nvalue = [3, 0]"] ;
1109 -> 1110 ;
1111 [label="gini = 0.0\nsamples = 1\nvalue = [0, 1]"] ;
1109 -> 1111 ;
1112 [label="gini = 0.0\nsamples = 12\nvalue = [0, 12]"] ;
1108 -> 1112 ;
1113 [label="liveness <= -0.648\ngini = 0.386\nsamples = 23\nvalue = [17, 6]"] ;
1107 -> 1113 ;
1114 [label="gini = 0.0\nsamples = 2\nvalue = [0, 2]"] ;
1113 -> 1114 ;
1115 [label="speechiness <= 0.988\ngini = 0.308\nsamples = 21\nvalue = [17, 4]"] ;
1113 -> 1115 ;
1116 [label="speechiness <= -0.419\ngini = 0.188\nsamples = 19\nvalue = [17, 2]"] ;
1115 -> 1116 ;
1117 [label="gini = 0.0\nsamples = 1\nvalue = [0, 1]"] ;
1116 -> 1117 ;
1118 [label="danceability <= -1.447\ngini = 0.105\nsamples = 18\nvalue = [17, 1]"] ;
1116 -> 1118 ;
1119 [label="mode <= -0.419\ngini = 0.5\nsamples = 2\nvalue = [1, 1]"] ;
1118 -> 1119 ;
1120 [label="gini = 0.0\nsamples = 1\nvalue = [0, 1]"] ;
1119 -> 1120 ;
1121 [label="gini = 0.0\nsamples = 1\nvalue = [1, 0]"] ;
1119 -> 1121 ;
1122 [label="gini = 0.0\nsamples = 16\nvalue = [16, 0]"] ;
1118 -> 1122 ;
1123 [label="gini = 0.0\nsamples = 2\nvalue = [0, 2]"] ;
1115 -> 1123 ;
1124 [label="instrumentalness <= -0.509\ngini = 0.335\nsamples = 296\nvalue = [63, 233]"] ;
1106 -> 1124 ;
1125 [label="valence <= 0.649\ngini = 0.268\nsamples = 213\nvalue = [34, 179]"] ;
1124 -> 1125 ;
1126 [label="valence <= -1.537\ngini = 0.2\nsamples = 169\nvalue = [19, 150]"] ;
1125 -> 1126 ;
1127 [label="danceability <= -0.974\ngini = 0.48\nsamples = 5\nvalue = [3, 2]"] ;
1126 -> 1127 ;
1128 [label="gini = 0.0\nsamples = 3\nvalue = [3, 0]"] ;
1127 -> 1128 ;
1129 [label="gini = 0.0\nsamples = 2\nvalue = [0, 2]"] ;
1127 -> 1129 ;
1130 [label="duration_ms <= -0.618\ngini = 0.176\nsamples = 164\nvalue = [16, 148]"] ;
1126 -> 1130 ;
1131 [label="chorus_hit <= -0.536\ngini = 0.48\nsamples = 10\nvalue = [4, 6]"] ;
1130 -> 1131 ;
1132 [label="gini = 0.0\nsamples = 4\nvalue = [0, 4]"] ;
1131 -> 1132 ;
1133 [label="key <= 0.081\ngini = 0.444\nsamples = 6\nvalue = [4, 2]"] ;
1131 -> 1133 ;
1134 [label="duration_ms <= -0.651\ngini = 0.444\nsamples = 3\nvalue = [1, 2]"] ;
1133 -> 1134 ;
1135 [label="gini = 0.0\nsamples = 2\nvalue = [0, 2]"] ;
1134 -> 1135 ;
1136 [label="gini = 0.0\nsamples = 1\nvalue = [1, 0]"] ;
1134 -> 1136 ;
1137 [label="gini = 0.0\nsamples = 3\nvalue = [3, 0]"] ;
1133 -> 1137 ;
1138 [label="loudness <= 1.726\ngini = 0.144\nsamples = 154\nvalue = [12, 142]"] ;
1130 -> 1138 ;
1139 [label="acousticness <= 0.882\ngini = 0.133\nsamples = 153\nvalue = [11, 142]"] ;
1138 -> 1139 ;
1140 [label="acousticness <= -1.054\ngini = 0.123\nsamples = 152\nvalue = [10, 142]"] ;
1139 -> 1140 ;
1141 [label="valence <= -0.271\ngini = 0.48\nsamples = 5\nvalue = [2, 3]"] ;
1140 -> 1141 ;
1142 [label="gini = 0.0\nsamples = 2\nvalue = [2, 0]"] ;
1141 -> 1142 ;
1143 [label="gini = 0.0\nsamples = 3\nvalue = [0, 3]"] ;
1141 -> 1143 ;
1144 [label="loudness <= 0.909\ngini = 0.103\nsamples = 147\nvalue = [8, 139]"] ;
1140 -> 1144 ;
1145 [label="chorus_hit <= -0.349\ngini = 0.298\nsamples = 22\nvalue = [4, 18]"] ;
1144 -> 1145 ;
1146 [label="gini = 0.0\nsamples = 14\nvalue = [0, 14]"] ;
1145 -> 1146 ;
1147 [label="loudness <= 0.884\ngini = 0.5\nsamples = 8\nvalue = [4, 4]"] ;
1145 -> 1147 ;
1148 [label="gini = 0.0\nsamples = 3\nvalue = [0, 3]"] ;
1147 -> 1148 ;
1149 [label="energy <= 0.057\ngini = 0.32\nsamples = 5\nvalue = [4, 1]"] ;
1147 -> 1149 ;
1150 [label="gini = 0.0\nsamples = 1\nvalue = [0, 1]"] ;
1149 -> 1150 ;
1151 [label="gini = 0.0\nsamples = 4\nvalue = [4, 0]"] ;
1149 -> 1151 ;
1152 [label="chorus_hit <= -1.149\ngini = 0.062\nsamples = 125\nvalue = [4, 121]"] ;
1144 -> 1152 ;
1153 [label="danceability <= -0.28\ngini = 0.5\nsamples = 2\nvalue = [1, 1]"] ;
1152 -> 1153 ;
1154 [label="gini = 0.0\nsamples = 1\nvalue = [1, 0]"] ;
1153 -> 1154 ;
1155 [label="gini = 0.0\nsamples = 1\nvalue = [0, 1]"] ;
1153 -> 1155 ;
1156 [label="liveness <= -0.561\ngini = 0.048\nsamples = 123\nvalue = [3, 120]"] ;
1152 -> 1156 ;
1157 [label="liveness <= -0.567\ngini = 0.12\nsamples = 47\nvalue = [3, 44]"] ;
1156 -> 1157 ;
1158 [label="chorus_hit <= -0.665\ngini = 0.085\nsamples = 45\nvalue = [2, 43]"] ;
1157 -> 1158 ;
1159 [label="loudness <= 0.968\ngini = 0.26\nsamples = 13\nvalue = [2, 11]"] ;
1158 -> 1159 ;
1160 [label="gini = 0.0\nsamples = 1\nvalue = [1, 0]"] ;
1159 -> 1160 ;
1161 [label="acousticness <= -1.045\ngini = 0.153\nsamples = 12\nvalue = [1, 11]"] ;
1159 -> 1161 ;
1162 [label="gini = 0.5\nsamples = 2\nvalue = [1, 1]"] ;
1161 -> 1162 ;
1163 [label="gini = 0.0\nsamples = 10\nvalue = [0, 10]"] ;
1161 -> 1163 ;
1164 [label="gini = 0.0\nsamples = 32\nvalue = [0, 32]"] ;
1158 -> 1164 ;
1165 [label="chorus_hit <= -0.715\ngini = 0.5\nsamples = 2\nvalue = [1, 1]"] ;
1157 -> 1165 ;
1166 [label="gini = 0.0\nsamples = 1\nvalue = [0, 1]"] ;
1165 -> 1166 ;
1167 [label="gini = 0.0\nsamples = 1\nvalue = [1, 0]"] ;
1165 -> 1167 ;
1168 [label="gini = 0.0\nsamples = 76\nvalue = [0, 76]"] ;
1156 -> 1168 ;
1169 [label="gini = 0.0\nsamples = 1\nvalue = [1, 0]"] ;
1139 -> 1169 ;
1170 [label="gini = 0.0\nsamples = 1\nvalue = [1, 0]"] ;
1138 -> 1170 ;
1171 [label="tempo <= 0.955\ngini = 0.449\nsamples = 44\nvalue = [15, 29]"] ;
1125 -> 1171 ;
1172 [label="loudness <= 1.029\ngini = 0.488\nsamples = 19\nvalue = [11, 8]"] ;
1171 -> 1172 ;
1173 [label="liveness <= 0.474\ngini = 0.337\nsamples = 14\nvalue = [11, 3]"] ;
1172 -> 1173 ;
1174 [label="gini = 0.0\nsamples = 10\nvalue = [10, 0]"] ;
1173 -> 1174 ;
1175 [label="duration_ms <= -0.769\ngini = 0.375\nsamples = 4\nvalue = [1, 3]"] ;
1173 -> 1175 ;
1176 [label="gini = 0.0\nsamples = 1\nvalue = [1, 0]"] ;
1175 -> 1176 ;
1177 [label="gini = 0.0\nsamples = 3\nvalue = [0, 3]"] ;
1175 -> 1177 ;
1178 [label="gini = 0.0\nsamples = 5\nvalue = [0, 5]"] ;
1172 -> 1178 ;
1179 [label="liveness <= 0.994\ngini = 0.269\nsamples = 25\nvalue = [4, 21]"] ;
1171 -> 1179 ;
1180 [label="acousticness <= -1.052\ngini = 0.095\nsamples = 20\nvalue = [1, 19]"] ;
1179 -> 1180 ;
1181 [label="gini = 0.0\nsamples = 1\nvalue = [1, 0]"] ;
1180 -> 1181 ;
1182 [label="gini = 0.0\nsamples = 19\nvalue = [0, 19]"] ;
1180 -> 1182 ;
1183 [label="speechiness <= 0.013\ngini = 0.48\nsamples = 5\nvalue = [3, 2]"] ;
1179 -> 1183 ;
1184 [label="gini = 0.0\nsamples = 3\nvalue = [3, 0]"] ;
1183 -> 1184 ;
1185 [label="gini = 0.0\nsamples = 2\nvalue = [0, 2]"] ;
1183 -> 1185 ;
1186 [label="loudness <= 0.935\ngini = 0.455\nsamples = 83\nvalue = [29, 54]"] ;
1124 -> 1186 ;
1187 [label="chorus_hit <= 0.696\ngini = 0.105\nsamples = 18\nvalue = [1, 17]"] ;
1186 -> 1187 ;
1188 [label="gini = 0.0\nsamples = 16\nvalue = [0, 16]"] ;
1187 -> 1188 ;
1189 [label="gini = 0.5\nsamples = 2\nvalue = [1, 1]"] ;
1187 -> 1189 ;
1190 [label="acousticness <= -0.651\ngini = 0.49\nsamples = 65\nvalue = [28, 37]"] ;
1186 -> 1190 ;
1191 [label="valence <= -1.339\ngini = 0.433\nsamples = 41\nvalue = [13, 28]"] ;
1190 -> 1191 ;
1192 [label="gini = 0.0\nsamples = 3\nvalue = [3, 0]"] ;
1191 -> 1192 ;
1193 [label="danceability <= -1.05\ngini = 0.388\nsamples = 38\nvalue = [10, 28]"] ;
1191 -> 1193 ;
1194 [label="loudness <= 1.01\ngini = 0.494\nsamples = 9\nvalue = [5, 4]"] ;
1193 -> 1194 ;
1195 [label="gini = 0.0\nsamples = 3\nvalue = [0, 3]"] ;
1194 -> 1195 ;
